%YAML:1.0
mysvm: !!opencv-ml-svm
   svm_type: C_SVC
   kernel: { type:RBF, gamma:1. }
   C: 1.
   term_criteria: { epsilon:1.1920928955078125e-07, iterations:1000 }
   var_all: 128
   var_count: 128
   class_count: 2
   class_labels: !!opencv-matrix
      rows: 1
      cols: 2
      dt: i
      data: [ -1, 1 ]
   sv_total: 52
   support_vectors:
      - [ 0.11465585, 0.01272011, 0.04948825, 0.08322295, 0.02474657,
          1.85040670e-04, 3.30387033e-03, 0.10523023, 0.26304013,
          6.80794939e-03, 6.12604126e-05, 0.01246891, 0.01393517,
          3.84935830e-03, 5.45380218e-03, 0.26304013, 0.26304013,
          0.03180828, 2.64971077e-05, 8.18426441e-03, 0.01300518,
          0.01677862, 1.76810325e-04, 0.24094614, 0.12940419,
          6.67059654e-03, 4.41618431e-05, 0.05647012, 0.12449730,
          0.02432029, 0.02544996, 0.08003314, 0.06921514, 0.02677403,
          5.87594649e-03, 0.14632069, 0.22689334, 3.69870919e-03,
          0.01666688, 0.04247404, 0.15030749, 0.07395098, 0.01985168,
          0.02252233, 0.02785450, 0.04680258, 0.03364963, 0.16918576,
          0.20014971, 0.03558304, 5.52634057e-03, 0.02853681, 0.05466574,
          0.06599241, 0.02705729, 0.16615753, 0.08769183, 4.52711666e-03,
          0.01288037, 0.26304013, 0.20630875, 9.12070274e-03,
          8.24291725e-04, 0.06148624, 0.05317338, 0.01030381,
          6.63527986e-03, 0.12577508, 0.18013550, 0.01356393,
          9.18092486e-03, 0.03391894, 0.05405352, 0.05945535, 0.04888431,
          0.05767574, 0.05050592, 0.03770813, 0.04798978, 0.06976808,
          0.06665217, 0.02539986, 0.03592905, 0.04889945, 0.05213454,
          0.08296965, 0.09067250, 0.12565275, 0.05588095, 0.01281184,
          0.03326129, 0.26304013, 0.23461477, 0.02655294, 0.01702102,
          0.06636926, 6.97898353e-03, 5.96527383e-03, 9.94024612e-03,
          0.04559019, 0.04436579, 3.44667770e-03, 6.71082735e-03,
          6.84827100e-03, 0.01338555, 0.02359746, 0.01818262, 0.03153385,
          0.01891075, 7.15569267e-03, 0.01219137, 0.02679164, 0.01020143,
          0.01175477, 0.01313999, 0.02826284, 0.02386016, 0.02317859,
          0.03848897, 0.03343036, 0.01619039, 0.01658859, 0.03649863,
          0.19224508, 0.06230072, 0.01140772, 0.01568897, 0.02545014 ]
      - [ 0.02273919, 0.01740519, 4.72968956e-03, 0.05896437, 0.03685087,
          1.99986901e-03, 2.02755124e-04, 0.01771362, 0.08139703,
          3.77324503e-03, 8.45239090e-04, 8.14978965e-03, 6.16744533e-03,
          1.75197166e-03, 2.58417102e-03, 0.09487507, 0.04589127,
          2.06745882e-03, 6.27829053e-04, 0.12340541, 0.15665551,
          0.02212143, 0.03083779, 0.05837162, 1.27999904e-03,
          2.79138726e-03, 1.08430698e-03, 0.04147066, 0.05319884,
          3.79746128e-03, 6.11960562e-03, 2.69064889e-03, 0.01031457,
          1.80080987e-03, 7.49646046e-04, 0.13809931, 0.24039325,
          0.01382605, 5.65299008e-04, 0.01450299, 0.05581313, 0.01771014,
          6.85282052e-03, 0.07508040, 0.04024319, 6.52580196e-03,
          5.50248101e-03, 0.03748319, 0.03605207, 0.01737847,
          3.28606716e-03, 0.25088736, 0.25088736, 0.14832440, 0.01719998,
          0.02503497, 0.01317326, 0.01319936, 1.98321464e-03, 0.10106529,
          0.14995582, 0.09220343, 0.01271130, 0.01100618, 5.51970443e-03,
          1.05755858e-03, 1.71551679e-03, 0.23588897, 0.25088736,
          2.84277275e-03, 5.56636776e-04, 6.11199951e-03, 0.05854141,
          0.01196504, 5.07835904e-03, 0.06026085, 0.04811280, 0.02408753,
          0.01343060, 0.04080249, 0.07755082, 0.01039530, 3.65988049e-03,
          0.09835982, 0.19271880, 0.19043948, 0.05525670, 0.07106308,
          0.08892948, 8.21036194e-03, 4.97169048e-03, 0.09008884,
          0.21019372, 0.15839630, 0.12623172, 0.12332379, 0.08219487,
          5.80952270e-03, 2.81682587e-05, 0.05737895, 0.09640040,
          0.02589280, 0.01388219, 0.04340190, 0.25088736, 0.01730398,
          1.29381125e-03, 4.47655143e-03, 8.21541343e-03, 3.14834923e-03,
          2.48813978e-03, 0.19389904, 0.25088736, 8.81354604e-03,
          4.57894197e-03, 5.81226638e-03, 6.20180927e-03, 1.49549218e-03,
          1.46938814e-03, 0.25088736, 0.15516181, 0.02327500, 0.03232821,
          0.05763729, 0.06165873, 2.14508316e-03, 9.88058094e-03,
          0.12665832 ]
      - [ 0.05956974, 0.01442893, 3.92907270e-04, 7.87742808e-03,
          0.01616945, 5.39061613e-03, 5.56848769e-04, 0.02172453,
          0.18949550, 0.01459158, 1.77613023e-04, 0.02687101, 0.03096582,
          2.21628603e-03, 6.51086855e-04, 0.13591066, 0.08912887, 0.,
          5.71178171e-05, 0.05205581, 0.05003479, 6.99205430e-07,
          0.05229246, 0.20808515, 0.01284570, 0., 1.00280705e-03,
          0.02518841, 0.02286477, 0., 0.03211388, 0.04920684,
          8.12602136e-03, 4.67120204e-03, 2.80486536e-03, 0.03502838,
          0.08696251, 0.02414340, 1.37357588e-03, 2.66976911e-03,
          0.01914435, 3.65046761e-03, 7.65522011e-04, 0.11122271,
          0.18630765, 0.03081358, 2.88139400e-03, 0.01262451,
          5.06960927e-03, 0., 4.01873700e-03, 0.25066084, 0.25066084,
          5.11091389e-03, 7.75777455e-03, 0.01953558, 1.22652983e-03, 0.,
          0.01104378, 0.12142460, 0.11045989, 7.89126847e-03,
          4.58769780e-03, 4.65076976e-03, 0.05589443, 3.24529770e-04,
          1.31882878e-03, 0.02839386, 0.05637849, 4.48019803e-03,
          0.04079075, 0.15178458, 0.25066084, 1.55996706e-03,
          1.33354915e-03, 0.08425720, 0.12683409, 9.14565008e-03,
          0.09603076, 0.25066084, 0.25066084, 0.10516100, 3.04261129e-03,
          0.19727169, 0.12459273, 4.34294203e-03, 7.42729055e-04,
          0.25066084, 0.12968656, 0.08534557, 4.59025474e-03, 0.06947640,
          0.07712771, 7.79952807e-03, 4.65484452e-04, 0.05045362,
          0.04819049, 5.40882989e-04, 1.82583684e-03, 3.96740390e-03,
          2.80611613e-03, 1.05348078e-03, 5.92886144e-03, 0.06311040,
          0.23690870, 1.16338732e-03, 1.10354659e-03, 9.10326745e-03,
          8.59064143e-03, 3.42688902e-04, 0.01409872, 0.22653359,
          0.25066084, 0.01705894, 2.24101386e-04, 0.01053391, 0.01086202,
          5.43667818e-04, 1.71590038e-03, 0.23666757, 0.06965014,
          0.01219223, 2.06717709e-03, 5.29225962e-03, 4.65120189e-03,
          2.53277202e-03, 2.93324469e-03, 0.06305492 ]
      - [ 1.29861198e-03, 3.11836577e-03, 1.55196269e-03, 8.94900225e-03,
          5.89902792e-03, 2.90776399e-04, 3.11350712e-04, 4.53216780e-04,
          7.06009660e-03, 4.55320487e-03, 8.88174400e-03, 0.18249160,
          0.10757226, 0.01243931, 0.03964807, 0.02047080, 0.04241774,
          0.01383322, 0.03714152, 0.09209074, 0.04317291, 0.02027067,
          0.09299185, 0.06953236, 6.05304213e-03, 9.61727783e-05,
          4.36305068e-03, 0.07679871, 0.03507054, 0.02744182, 0.02156588,
          0.02284720, 9.78756230e-03, 8.55364650e-03, 1.14960340e-03,
          0.02916494, 0.01332041, 4.02651588e-03, 7.86739588e-03,
          0.01222670, 0.02439224, 7.85363745e-03, 4.12088819e-03,
          0.28520310, 0.22901124, 8.06616386e-04, 3.59481620e-03,
          0.02459844, 0.04383822, 0.01456650, 0.02248117, 0.28520310,
          0.20240146, 3.61399213e-03, 6.63025631e-03, 0.03648950,
          6.81919372e-03, 3.96511471e-03, 0.03390497, 0.28520310,
          0.10926447, 0.01559837, 0.01286712, 5.76724764e-03,
          3.56750423e-03, 2.74908706e-03, 6.29797252e-03, 0.05852212,
          0.01858103, 8.38226918e-03, 5.19134803e-03, 6.96733221e-03,
          8.63073673e-03, 7.72026554e-03, 0.02722367, 0.28520310,
          0.22773543, 4.60299058e-03, 4.55095526e-03, 0.01188925,
          0.01031466, 5.03158616e-03, 2.93257646e-03, 0.28520310,
          0.28520310, 9.96368704e-04, 2.68905237e-03, 0.01586841,
          6.97002420e-03, 0.01095988, 7.54536921e-03, 0.26398042,
          0.20078005, 5.25477249e-03, 7.01217214e-03, 2.85698497e-03,
          2.21579359e-03, 8.87351285e-04, 2.55583902e-03, 0.03014093,
          0.01668569, 2.12485250e-03, 3.73882032e-03, 9.62946622e-04,
          0.06352518, 0.06696299, 2.26653507e-03, 0.21188997, 0.08144376,
          0.04191512, 0.05497828, 8.54040030e-03, 0.04911778, 0.05596719,
          0.01583374, 0.16755243, 0.13592744, 0.05898634, 0.04415807,
          0.03391797, 4.60240850e-03, 0.01357895, 0.01118302, 0.11656798,
          0.07020381, 1.84307387e-03, 4.05719853e-04, 3.70945246e-03 ]
      - [ 0.02412281, 3.88092478e-03, 5.60423452e-03, 0.02145830,
          0.02907601, 1.24632902e-06, 0., 0.03117021, 0.01413366,
          9.80253238e-03, 0.02368888, 0.06832924, 0.05519889, 0.01422799,
          0.01532949, 0.02079445, 7.99938664e-03, 0.02257860, 0.03242188,
          0.08732954, 0.11314441, 0.09041601, 0.07315701, 0.01554567,
          0.01560519, 4.82295174e-03, 0.02281560, 0.03232205, 0.05314274,
          0.02301214, 0.01069062, 0.02224370, 0.03204833, 6.24624733e-03,
          0.01153144, 0.19734445, 0.17324485, 9.00102314e-04,
          1.41463138e-03, 0.02724309, 5.09100500e-03, 0.01753017,
          0.04817822, 0.23526040, 0.24297152, 0.02391665, 0.01654194,
          5.56870457e-03, 8.75833561e-04, 0.01303204, 0.02800209,
          0.24297152, 0.24297152, 0.24297152, 0.06185253, 5.94289415e-03,
          0.04867110, 0.02888029, 0.01684409, 0.11681344, 0.17922403,
          0.07178888, 0.02088888, 0.03264564, 0.06753628, 4.75058751e-03,
          0.02155650, 0.18329385, 0.16209686, 2.92288954e-03,
          4.04755678e-03, 0.01727196, 0.02915045, 0.07231506, 0.08461473,
          0.24297152, 0.18416539, 0.03006508, 0.02268568, 0.02730421,
          0.02670811, 0.05810724, 0.04433770, 0.24297152, 0.24297152,
          0.21947251, 0.16530809, 0.05464300, 0.04084222, 0.03401125,
          0.02163152, 0.06530649, 0.08302558, 0.11017695, 0.07686733,
          0.02940819, 0.03218251, 9.12226643e-03, 8.94174073e-03,
          9.89396870e-03, 0.01288777, 1.76351995e-03, 0.01317861,
          0.03445902, 0.04747572, 0.01239052, 0.02376747, 0.04033365,
          0.02217471, 0.02159994, 0.04827802, 0.11886149, 0.09398810,
          0.03174036, 0.02144800, 0.05305204, 0.05018529, 0.01423711,
          0.06921401, 0.21218629, 0.06334755, 0.01316767, 2.06112699e-03,
          0.01044117, 0.01302538, 4.89489688e-03, 0.04400486, 0.10231227 ]
      - [ 0.05253641, 0.01033829, 0.04261794, 0.01896008, 0.03539141,
          0.03486604, 0.01687730, 0.05668650, 0.24032205, 0.02413919,
          5.53347915e-03, 6.74177706e-03, 0.01051995, 5.82766207e-03,
          0.01348897, 0.22951192, 0.15844716, 5.21103106e-03,
          6.89822191e-04, 0.02367787, 0.03273675, 0.01388783, 0.05078387,
          0.24032205, 0.04503352, 4.49715124e-04, 5.12983184e-04,
          0.02810154, 0.07004168, 0.04594902, 0.02558562, 0.09248057,
          0.05666480, 0.01158599, 0.01296419, 8.72127712e-03, 0.01507535,
          0.03083724, 0.01197535, 0.07710162, 0.22535628, 0.06890375,
          3.46116791e-03, 0.07746223, 0.10391934, 0.01423756, 0.02622325,
          0.20419799, 0.24032205, 0.09539776, 0.07373127, 0.05862590,
          0.11400080, 0.01379017, 0.10908145, 0.24032205, 0.16278569,
          2.11746432e-03, 0.08202707, 0.02444980, 0.07870239, 0.01260395,
          0.03587206, 0.18904926, 4.78755310e-03, 3.71215027e-03,
          6.56259106e-03, 0.01819479, 0.01627805, 2.75649200e-03,
          5.70375239e-03, 4.32952214e-03, 9.88068338e-03, 0.02391015,
          0.01602909, 0.23194127, 0.22386611, 0.01721157, 0.01628302,
          5.39548229e-03, 0.06334841, 0.03373735, 0.14891841, 0.24032205,
          0.24032205, 0.08769079, 0.03654316, 0.06961337, 0.06702373,
          8.98694713e-03, 0.07538166, 0.01763045, 0.10011814, 0.03930090,
          0.02084052, 0.05658882, 0.01194744, 4.86152805e-03,
          1.99520146e-03, 0.01541926, 0.01176984, 0.01242735, 0.01246458,
          7.70044234e-03, 0.08851108, 0.02134602, 8.79310723e-03,
          0.08845612, 0.06450624, 0.01951509, 0.01216210, 0.07662251,
          0.14867714, 0.01648575, 0.03810332, 0.08169992, 0.08167798,
          0.03704713, 0.03532823, 0.19089453, 0.04748310, 0.03825054,
          0.05395721, 0.01910210, 0.04669070, 5.58336033e-03, 0.01649251,
          0.07244585 ]
      - [ 0.04680008, 3.45547008e-03, 6.90782396e-03, 6.42039441e-03,
          8.59571062e-03, 0.01159973, 0.01360545, 0.03682560, 0.05791081,
          6.51502237e-03, 0.02404076, 0.01010140, 0.01349728, 0.01504545,
          0.01205381, 0.12434959, 0.09044173, 9.22912359e-03,
          8.26419611e-03, 9.61387530e-03, 9.27115977e-03, 8.23682360e-03,
          2.80941604e-03, 0.13123079, 0.02910507, 1.05781551e-03,
          9.87150241e-04, 1.33256731e-03, 1.26275024e-03, 5.80637017e-03,
          6.58083521e-03, 0.05382792, 0.13683441, 0.02140061, 0.04450089,
          0.20609559, 0.24603300, 0.04579145, 0.06126049, 0.05860441,
          0.21632908, 0.04693653, 0.04036747, 0.15773745, 0.11715938,
          0.03928661, 0.06656784, 0.24603300, 0.24603300, 0.03311961,
          0.05138374, 0.05050143, 0.01669884, 0.03116529, 0.01279694,
          0.24603300, 0.08145539, 0.01116614, 0.01722681, 0.08636259,
          0.10612931, 0.03450233, 0.04185149, 0.17954907, 0.05638742,
          0.05964204, 0.08978733, 0.22364846, 0.24603300, 0.03759881,
          0.01649963, 0.03891508, 0.24603300, 0.06486958, 0.09494382,
          0.17498006, 0.13728094, 9.99155268e-03, 0.02556765, 0.17943671,
          0.23452060, 0.07377352, 0.07314197, 0.05449817, 0.02614070,
          7.57246278e-03, 0.02568776, 0.17362560, 0.02788065, 0.06817840,
          0.03000533, 0.15704356, 0.08344424, 4.24211286e-03,
          7.29108369e-03, 0.04562531, 0.04976875, 0.02454232, 0.02820435,
          9.87207424e-03, 0.02269620, 0.01222420, 6.56611286e-03,
          0.03338093, 0.08717433, 0.01980179, 0.03216949, 0.01262375,
          0.01239868, 4.13028896e-03, 0.03080229, 0.08299868, 0.07034948,
          0.01729085, 0.01844198, 0.01543422, 0.01559599, 8.61963630e-03,
          0.01595815, 0.09122052, 0.01782191, 0.02103395, 6.16012653e-03,
          0.01177431, 0.01153929, 8.88408814e-03, 5.92099736e-03,
          0.02871408 ]
      - [ 0.01215130, 0.01775564, 9.59120970e-03, 0.02153708,
          6.83753192e-03, 7.26069557e-03, 0.01198869, 6.18301192e-03,
          0.04700789, 0.03062696, 0.06388976, 0.07869033, 0.04911806,
          0.05769593, 0.04324294, 0.01003709, 0.04779601, 0.07344802,
          0.12000716, 0.12763791, 0.18474579, 0.14246851, 0.03024653,
          0.12935141, 0.01791267, 0.01447866, 0.01955299, 0.08650951,
          0.11791883, 0.04795225, 0.01325790, 0.13045995, 0.03192746,
          0.02072477, 0.01859301, 0.01566170, 6.34407438e-03,
          9.94656421e-03, 9.80399363e-03, 0.01944933, 0.08769058,
          0.03679929, 0.04843515, 0.07537083, 0.03409172, 0.06301769,
          0.06965601, 0.02909118, 0.26937178, 0.04652001, 0.01239565,
          0.26937178, 0.26937178, 0.23669688, 0.05086094, 0.16558115,
          0.11310754, 0.03520570, 3.59482621e-03, 0.26937178, 0.26937178,
          0.09775279, 9.14730504e-03, 0.11315746, 0.02802738, 0.01107911,
          0.01101736, 9.53494105e-03, 8.97492189e-03, 7.41710793e-03,
          8.54794774e-03, 0.01634799, 0.03846900, 0.04280235, 0.04000735,
          0.02368784, 0.02660288, 0.03147482, 0.05304695, 0.03730293,
          0.09280540, 0.01226001, 9.63112153e-03, 0.23661691, 0.20229059,
          0.04432359, 0.04969784, 0.16272974, 0.13290648, 0.01185822,
          3.92569695e-03, 0.18080141, 0.26937178, 0.01471140,
          3.28551652e-03, 0.15892799, 0.01007080, 4.25214972e-03,
          3.43891629e-03, 3.86080216e-03, 3.01186251e-03, 1.15272007e-03,
          9.15377028e-03, 0.01216067, 0.02005736, 0.03232146, 0.01869205,
          9.72494576e-03, 9.16402508e-03, 5.04466426e-03, 6.80619897e-03,
          0.01066634, 0.02104725, 8.88554379e-03, 0.01532812, 0.01160073,
          0.02591800, 0.01615699, 0.01722188, 0.03280808, 7.11974734e-03,
          8.21382087e-03, 5.24424808e-03, 3.08948616e-03, 7.00477138e-03,
          0.01123658, 4.44775354e-03, 0.01120988 ]
      - [ 0.04144241, 7.08101038e-03, 1.93158805e-03, 4.25826432e-03,
          2.73463922e-03, 7.15579838e-03, 2.49274587e-03, 0.04133300,
          0.02608237, 0.01824602, 3.99856735e-03, 0.10697050, 0.07723090,
          0.01269368, 0.01752182, 0.02213310, 0.06115107, 0.06403065,
          3.85528576e-04, 0.10050407, 0.07608757, 0.03841278, 0.03308824,
          0.02627005, 0.03930906, 6.33458188e-03, 0., 2.87492224e-03,
          0.01741203, 0.02101996, 0.01222654, 0.03698877, 0.13219865,
          0.01433970, 1.72419474e-03, 0.01074665, 8.04214273e-03,
          0.01585339, 8.20457283e-03, 0.12811318, 0.12260615, 0.04325918,
          0.01810605, 0.11477986, 0.11033842, 0.04065263, 0.05572634,
          0.11236491, 0.25510859, 0.14364302, 0.07937441, 0.07003222,
          0.04574901, 0.02651130, 0.06875520, 0.21603380, 0.19943738,
          0.03356716, 0.01410363, 2.11989041e-03, 4.00981447e-03,
          2.28796992e-03, 0.01474896, 0.14817402, 0.08339572,
          9.70027782e-03, 0.01033493, 0.09507629, 0.03977478, 0.02317184,
          0.01495303, 0.08197401, 0.05354911, 0.02299588, 0.02791980,
          0.25510859, 0.25510859, 0.05331838, 0.04208137, 0.05635499,
          0.13598482, 0.08686030, 0.16490543, 0.25510859, 0.25510859,
          0.04889210, 0.03481623, 0.06519096, 0.16250478, 0.04340723,
          0.05881076, 0.02020776, 0.02964437, 0.01348231, 0.01194074,
          0.09649022, 2.23603682e-03, 0.01052102, 0.01176514, 0.05625262,
          0.02648440, 1.25086959e-03, 4.04235383e-04, 1.73748599e-03,
          4.20245342e-04, 6.27562776e-03, 0.01463041, 0.25510859,
          0.19400646, 0., 3.36413395e-05, 2.64169939e-04, 1.33668756e-04,
          2.96350149e-03, 4.48784744e-03, 0.24424990, 0.25510859,
          0.01587056, 0.01013155, 6.15361286e-03, 6.78912457e-03,
          1.72758393e-03, 5.43708913e-03, 0.01033945, 0.01302718,
          0.01245739, 0.01526381, 0.01931163 ]
      - [ 0.03099458, 0.02089259, 0.01370012, 8.75025801e-03,
          6.90319203e-03, 2.04689149e-03, 1.84425502e-03, 0.03571277,
          0.04570906, 0.04721739, 0.01842428, 0.06390290, 0.13049196,
          0.02638542, 0.04675380, 7.40419049e-03, 7.35738501e-03,
          0.02846726, 0.01393892, 0.11288062, 0.15541799, 0.03511653,
          0.04018028, 0.03167256, 0.01354176, 1.38520903e-03,
          2.88182846e-03, 0.02555457, 0.02724769, 0.01043074,
          2.22249911e-03, 0.01457999, 0.05289864, 0.06770100, 0.02466779,
          0.03492576, 0.01477276, 0.02227145, 0.01326765, 0.10415037,
          0.01405641, 0.08121549, 0.05380447, 0.25713655, 0.25713655,
          0.13814037, 0.02740108, 0.01964698, 5.92323602e-04,
          2.76267347e-05, 0.07298909, 0.25713655, 0.25713655, 0.09567887,
          6.90403162e-03, 5.50522469e-03, 0.01492937, 8.84683046e-04,
          0.01131771, 0.07387384, 0.08955569, 4.46838886e-03,
          5.92337875e-03, 0.01254839, 0.02387311, 0.02357092, 0.02473942,
          0.04280760, 0.04592114, 0.05153413, 8.27144831e-03, 0.02453394,
          7.30602583e-03, 0.02178668, 0.04351449, 0.25713655, 0.25713655,
          0.21228884, 0.01471798, 0.01141326, 0.01690911, 0.04617238,
          0.10549809, 0.25713655, 0.25713655, 0.10649108, 0.01948735,
          0.05908718, 0.02481000, 0.01132787, 0.03185548, 0.04285864,
          0.08794399, 0.01431768, 4.80145123e-03, 0.01783871, 0.01814941,
          2.61453027e-03, 9.42679867e-03, 0.01971570, 0.01867714,
          0.01041891, 2.03756965e-03, 0.01354635, 0.02306812,
          2.34348536e-03, 0.02849564, 0.23169364, 0.25713655, 0.01403210,
          1.43534644e-03, 6.31265342e-03, 0.01249703, 7.16422964e-03,
          8.15981906e-03, 0.14470698, 0.25713655, 0.03844878,
          8.04884825e-03, 0.01643912, 0.03867258, 0.01691911, 0.02824877,
          0.01059318, 0.02489783, 0.01478999, 4.28998424e-03, 0.02406474 ]
      - [ 8.19459092e-03, 0.01241975, 7.80247664e-03, 7.10295653e-03,
          0.01091519, 0.01319556, 0.01183268, 0.01102942, 0.05387060,
          0.04969968, 0.10061511, 0.01944313, 0.03534033, 0.02200289,
          0.02654621, 0.04671875, 0.09276582, 0.03637571, 0.06963581,
          0.02771176, 0.01976521, 0.02184140, 0.07922324, 0.07671227,
          0.02076454, 0.01773048, 7.16788415e-03, 0.01175814, 0.01439545,
          0.01584033, 0.02817738, 0.01858467, 0.07232386, 0.07783230,
          0.02995152, 0.03068804, 0.02801813, 0.04908229, 0.02723944,
          0.03352216, 0.21451165, 0.10259502, 0.05439494, 0.20214662,
          0.13557795, 0.16050236, 0.06746840, 0.17162254, 0.17420913,
          0.12214214, 0.09648666, 0.11152638, 0.08696594, 0.07935423,
          0.15774760, 0.11264367, 0.04712052, 0.05850610, 0.02392284,
          0.03277581, 0.02644781, 0.03333077, 0.06662262, 0.07011930,
          0.04990255, 0.04819775, 0.03542131, 0.02853142, 0.06005349,
          0.06182704, 0.02756278, 0.01454283, 0.16560875, 0.18054563,
          0.12839621, 0.22851235, 0.24691351, 0.14793189, 0.03381674,
          0.21240970, 0.14659533, 0.20067787, 0.13697273, 0.17417969,
          0.13663153, 0.14055605, 0.12442432, 0.24188435, 0.06941731,
          0.04999013, 0.05238370, 0.06869671, 0.03689787, 0.03296908,
          0.05411756, 0.06408904, 0.01684309, 0.01493441, 0.02244007,
          0.03744214, 0.02403854, 0.02219234, 3.89767601e-03, 0.01655320,
          0.04858588, 0.09165527, 0.04332379, 0.03666988, 0.05835862,
          0.10327840, 0.04227524, 0.04507192, 0.04121171, 0.09118664,
          0.05796621, 0.07934204, 0.02835532, 0.09737866, 0.10998113,
          0.08312014, 0.03668093, 0.03572417, 0.02361974, 0.02983545,
          0.02412029, 8.21048953e-03, 0.01167424, 0.03416205 ]
      - [ 4.58425935e-03, 5.04216366e-03, 3.10538313e-03, 1.37995952e-03,
          3.56025156e-03, 1.93013123e-03, 1.99183798e-03, 3.49378656e-03,
          0.01151448, 0.01586531, 4.80331806e-03, 2.09357101e-03,
          5.05508482e-03, 7.30388239e-03, 5.77216037e-03, 0.01430050,
          0.02671346, 0.01743757, 0.02066448, 0.04444686, 0.07168204,
          0.02322653, 0.02074347, 0.01614874, 0.02527782, 0.01419339,
          0.01406471, 0.02131269, 0.01782822, 0.02122825, 0.04240036,
          0.01295238, 3.68764810e-03, 6.95381872e-03, 7.16671906e-03,
          5.57910278e-03, 9.80168954e-03, 3.95360170e-03, 7.29985349e-03,
          9.19469818e-03, 0.02204998, 0.02670871, 0.01517091, 0.01246819,
          0.02300503, 0.02044222, 0.03506481, 0.02851913, 0.01541913,
          0.03285726, 0.11104653, 0.26179260, 0.26179260, 0.01683042,
          0.04914087, 0.08168221, 0.10916464, 0.01319874, 0.06734782,
          0.26179260, 0.26179260, 0.01413393, 0.02792428, 0.11585689,
          0.01804005, 7.62805063e-03, 9.41778533e-03, 3.79144982e-03,
          4.70949663e-03, 2.61363620e-03, 6.60924055e-03, 0.03108668,
          0.11098602, 0.03054352, 0.01877114, 0.06343342, 0.09620250,
          5.33269625e-03, 0.02472526, 0.15030852, 0.20115155, 0.05632878,
          0.09974519, 0.26179260, 0.26179260, 0.01691056, 0.19457492,
          0.26179260, 0.04423120, 6.30852673e-03, 0.05021345, 0.15668221,
          0.26179260, 0.02566979, 0.17585972, 0.23998755, 0.02128407,
          9.77127906e-03, 5.32293739e-03, 4.25615069e-03, 7.53203500e-03,
          5.85198309e-03, 6.09591696e-03, 0.02353126, 0.10670829,
          6.56263437e-03, 0.01812639, 0.02368219, 0.02859869,
          6.63932413e-03, 0.01965883, 0.13609271, 0.18956646, 0.02403245,
          0.01632586, 0.03325026, 0.02170096, 3.48580023e-03, 0.06854318,
          0.16484521, 0.04831182, 2.57429807e-03, 3.39636521e-04,
          9.25317779e-03, 4.83367033e-03, 0.01379053, 0.06198917,
          0.05953765 ]
      - [ 0.02931562, 8.39820877e-03, 0.02845193, 0.07120703, 0.04105486,
          0.03149381, 0.01020431, 5.96369430e-03, 0.02720542,
          4.53061145e-03, 0.04581237, 0.15117200, 0.14343582, 0.04795341,
          5.09348232e-03, 0.02581549, 0.06037280, 2.38040206e-03,
          3.60787218e-03, 0.01435439, 0.01313814, 3.68710328e-03,
          5.01026912e-03, 0.06497674, 0.03139982, 1.56870301e-04,
          2.37934641e-04, 5.65349963e-03, 7.38688605e-03, 2.17501353e-03,
          3.44696804e-03, 0.02915697, 6.83868071e-03, 1.37948128e-03,
          4.51599155e-03, 0.08590866, 0.09722634, 0.06105678, 0.02305849,
          4.03839583e-03, 0.09534262, 0.12351473, 0.06911131, 0.22394419,
          0.24291258, 0.24291258, 0.19305030, 0.11237619, 0.05191126,
          0.02296237, 0.06681978, 0.13579407, 0.12394974, 0.07617963,
          0.02988328, 0.07674083, 2.67170370e-03, 1.10098161e-03,
          7.75568129e-04, 0.01163153, 0.01860335, 0.02047496,
          7.51645537e-03, 1.87745318e-03, 0.04669780, 0.04879256,
          0.03705882, 0.03157361, 0.01082764, 0.03061097, 0.03207006,
          0.08510474, 0.24291258, 0.10817625, 0.24114186, 0.19988082,
          0.04387465, 0.24291258, 0.24291258, 0.24291258, 0.06505372,
          0.01733811, 0.24291258, 0.24291258, 0.12587136, 0.07819102,
          0.11626690, 0.03155904, 2.29656277e-03, 1.56692881e-03,
          3.92186735e-03, 5.82671491e-03, 8.98572430e-03, 0.01192660,
          5.16853807e-03, 3.85494041e-03, 0.02919593, 0.10289092,
          0.07614104, 0.01849630, 6.41413208e-04, 0., 3.35601770e-04,
          0.01489181, 0.15932873, 0.07087579, 0.07146045, 0.04898578,
          6.86076656e-03, 3.17478622e-03, 3.50683904e-03, 0.09692147,
          0.07487179, 2.31067627e-03, 0.03160632, 0.04619196, 0.02238412,
          6.05039811e-03, 1.84651755e-03, 0.06969376, 0.03247068,
          1.47295883e-03, 1.25945476e-03, 4.21545282e-03, 5.22204069e-03,
          1.83230278e-03, 6.71508373e-04, 0.03519722 ]
      - [ 1.17059099e-03, 0., 0., 0.05552793, 0.05706292, 0.01416389,
          4.43593599e-03, 1.39567594e-03, 1.32818811e-03, 9.39967751e-04,
          0.01111909, 0.05863298, 0.08191971, 0.11381397, 0.02167730,
          3.78331332e-03, 0.03560837, 0.02808077, 0.01607572, 0.07283420,
          0.08423933, 0.07507310, 0.02279899, 0.02940582, 5.56389801e-03,
          9.09326412e-03, 4.92429594e-03, 0.05846607, 0.07174142,
          0.04422781, 5.12041617e-03, 3.49705364e-03, 0.01259685,
          8.52808915e-03, 8.09595268e-03, 0.11041470, 0.23790310,
          0.01406630, 5.07844100e-03, 0.01203038, 9.87700094e-03,
          0.08759715, 0.12298931, 0.19572225, 0.16083626, 0.14380798,
          0.02059561, 0.01649715, 0.02958364, 0.03368701, 0.04016796,
          0.14306070, 0.16942771, 0.09512927, 0.03730760, 0.03677243,
          9.28920973e-03, 0.01856825, 2.45462521e-03, 0.10426357,
          0.23290360, 0.16097678, 0.05090772, 0.01013019, 0.12831895,
          8.91842600e-03, 5.08333277e-03, 0.06909047, 0.20545229,
          0.03494506, 0.07624809, 0.14687034, 0.23790310, 0.15931538,
          0.03551517, 0.08653976, 0.19046701, 0.06880978, 0.02659332,
          0.23790310, 0.23790310, 0.07708447, 0.02904737, 0.10718522,
          0.12851918, 0.04054249, 0.02725847, 0.18580778, 0.04607407,
          0.03697017, 0.01895583, 0.15782753, 0.23790310, 0.05258204,
          0.05172709, 0.05481057, 0.06375958, 2.11071968e-03,
          1.07975514e-03, 1.36749330e-03, 3.87318432e-03, 3.17687425e-03,
          0.01299841, 0.05517386, 0.19615397, 0.02069818, 1.17467302e-04,
          1.78658101e-03, 1.73378899e-03, 1.01665221e-03, 0.01268680,
          0.14042209, 0.11023381, 0.01411152, 4.64216853e-03,
          6.40387973e-03, 3.93573148e-03, 8.16416694e-04, 0.01346529,
          0.11686233, 0.03552021, 7.51737272e-03, 5.69278887e-03,
          0.01190791, 7.59820687e-03, 2.78262049e-03, 6.88939774e-03,
          0.03120263 ]
      - [ 0.05780891, 0.01123774, 0.01544582, 0.02555171, 0.02418886,
          5.56365470e-04, 0., 0.04711350, 0.22565064, 3.08661978e-03,
          2.24007177e-03, 2.51607480e-03, 4.34259791e-03, 3.89455818e-03,
          3.21394135e-03, 0.19103220, 0.22565064, 1.18847808e-03, 0.,
          2.69085378e-03, 2.83234497e-03, 3.78306094e-03, 3.75446538e-03,
          0.20743071, 0.05751530, 1.60153228e-04, 0., 0.03390706,
          0.03525437, 0.02445680, 0.01054814, 0.06930640, 0.02834175,
          0.01098208, 9.13289655e-03, 0.19799657, 0.20609567,
          5.15736639e-03, 0., 0.02103024, 0.09805775, 8.92411824e-03,
          3.18992697e-03, 0.09350805, 0.11619723, 0.03494948, 0.02174566,
          0.09851659, 0.08977835, 2.04806146e-03, 3.66259483e-03,
          0.04446683, 0.03345043, 0.01217413, 0.01582103, 0.09554654,
          0.01781843, 3.18586855e-04, 1.16613752e-03, 0.22565064,
          0.22565064, 0.01606506, 7.69464765e-03, 0.02022217, 0.02843304,
          0., 5.35349082e-03, 0.21849281, 0.22190090, 0.01137259,
          0.01529340, 0.03606789, 0.14644097, 0.01621703, 0.04603606,
          0.11212736, 0.09906289, 3.50251258e-03, 0.01223696, 0.13312842,
          0.15351510, 0.01465991, 9.88673791e-03, 0.05388938, 0.03656210,
          3.44973244e-03, 4.09088377e-03, 0.11940753, 0.02864357,
          0.01525646, 0.01781217, 0.22565064, 0.22565064, 4.66708414e-04,
          8.73968645e-04, 0.02656443, 0.06648738, 0., 7.64784403e-04,
          0.02794843, 0.03481371, 0.01979928, 0.01612275, 0.07946462,
          0.22565064, 2.09086947e-03, 6.02715882e-03, 3.50068184e-03,
          3.38154193e-03, 2.61941343e-03, 4.20149928e-03, 0.22565064,
          0.22565064, 5.09877549e-03, 4.00716765e-03, 4.41356609e-03,
          3.64605314e-03, 2.70568835e-05, 3.27659585e-03, 0.22565064,
          0.09178019, 0.02189166, 0.02612452, 0.04752419, 0.04019132,
          4.50948064e-05, 3.73849034e-04, 0.08499464 ]
      - [ 0.04177719, 9.29669105e-03, 5.54795517e-03, 3.65987048e-03,
          2.86403927e-03, 7.49100436e-05, 2.58476567e-03, 0.01772006,
          0.10348380, 0.01438903, 0.01865047, 0.01299076, 0.02328249,
          5.71053987e-03, 0.03067038, 0.04071671, 0.11266638, 0.02633973,
          0.09922557, 0.02273916, 0.01511818, 0.04570388, 0.03236690,
          0.10665612, 0.03356354, 5.24639990e-03, 9.08258650e-03,
          9.01452079e-03, 3.08655342e-03, 0.02594217, 7.72817573e-03,
          0.04050688, 0.08508749, 0.05630663, 0.04916476, 0.01956857,
          0.02666796, 0.04078875, 0.03146353, 0.08110433, 0.18115005,
          0.16138098, 0.15096354, 0.23233934, 0.20904659, 0.08904146,
          0.16747266, 0.16576068, 0.23233934, 0.20191805, 0.17634141,
          0.23233934, 0.21408056, 0.23233934, 0.23233934, 0.23233934,
          0.06688038, 0.01027498, 0.02859426, 0.13381076, 0.10196239,
          0.05761400, 0.06464546, 0.12724572, 0.06128757, 0.03007212,
          0.03202783, 7.42509589e-03, 4.33172006e-03, 0.01057250,
          0.01466707, 0.04767043, 0.11282717, 0.07052320, 0.06027788,
          0.09286017, 0.02280997, 0.03176264, 0.02765456, 0.10544056,
          0.11804809, 0.04329766, 0.01734450, 0.09620532, 0.12684652,
          0.10872255, 0.13905643, 0.22154301, 0.08014340, 9.24686249e-03,
          0.01596315, 0.08176024, 0.10205997, 0.02523956, 0.05546622,
          0.10644262, 0.01340626, 6.52328040e-03, 1.75640779e-03,
          3.08039319e-03, 7.54649611e-03, 0.01122173, 6.64852746e-03,
          9.09818150e-03, 0.02703154, 0.02393688, 0.02320368, 0.02435829,
          0.01577497, 0.01334591, 0.01571434, 0.01043238, 0.04607200,
          9.27149970e-03, 0.01601507, 0.03450958, 0.03033071, 0.01318439,
          7.89127685e-03, 0.03189974, 0.06119128, 8.25786497e-03,
          7.39869708e-03, 0.03421282, 0.01512419, 3.32795084e-03,
          7.93102570e-03, 0.02188743 ]
      - [ 1.14177936e-03, 6.78148260e-03, 0.01140408, 0.12050930,
          0.11800297, 1.20029821e-04, 6.00771338e-04, 8.47613264e-04,
          0.01352294, 0.01541716, 8.90429039e-03, 0.08807913, 0.05962352,
          3.93562746e-04, 0.01083544, 0.01471228, 0.03307564,
          7.41549162e-03, 5.25758183e-03, 0.01162887, 5.93812019e-03,
          8.14858766e-04, 8.28334037e-03, 0.02600507, 0.02227562,
          1.35031401e-03, 2.85479333e-03, 0.03559345, 0.04109289,
          4.87521477e-03, 5.84936142e-03, 0.01198429, 3.19753075e-03,
          1.60066015e-03, 2.68026465e-03, 0.23341694, 0.23341694,
          4.84856218e-03, 5.47829596e-03, 2.56112288e-03, 0.03583496,
          0.04647957, 0.01976009, 0.20860738, 0.19428264, 0.01796114,
          0.02588339, 0.03024348, 0.03702491, 0.03568038, 0.01608737,
          0.01659138, 0.01774500, 0.01836185, 0.03431011, 0.05763042,
          0.01882490, 3.91210755e-03, 6.73402334e-03, 0.12081423,
          0.12367947, 9.54186916e-03, 0.01136011, 8.23964085e-03,
          0.01373332, 0.02232377, 0.01229255, 0.23341694, 0.23341694,
          0.04751433, 0.06650926, 0.01141266, 0.12180876, 0.06348046,
          0.07750016, 0.18354720, 0.14522690, 0.08823606, 0.22588351,
          0.23341694, 0.15839298, 0.01662785, 0.02415927, 0.09841365,
          0.14849554, 0.05759380, 0.09697057, 0.14222993, 0.08027042,
          9.35026072e-03, 3.60806147e-03, 0.13893943, 0.16796684,
          0.01635262, 0.02209421, 0.04206232, 8.83321185e-03, 0.01927270,
          0.01645249, 0.09469767, 0.10763096, 0.05451104, 0.03357543,
          0.02914657, 0.19691201, 0.04448098, 0.05614306, 0.05092266,
          0.06783739, 0.03663088, 0.04367519, 0.23097226, 0.23341694,
          1.17146422e-03, 0.01138860, 0.04813519, 0.03760241,
          5.32337232e-03, 0.02812998, 0.21581897, 0.07863324, 0.01265061,
          0.02499978, 0.02374083, 0.02715701, 2.40834756e-03, 0.01028712,
          0.10648091 ]
      - [ 0.01978877, 8.53510108e-03, 2.25271401e-03, 0.01497593,
          5.93424356e-03, 2.83223507e-03, 0.01261865, 0.02508229,
          0.10410067, 6.50871731e-03, 0.01002981, 0.09044773, 0.03821265,
          0.02823548, 0.01376557, 0.12581149, 0.03322354, 0.01231713,
          0.01613464, 0.03239869, 0.03744089, 0.01648669, 6.66744122e-03,
          0.02212982, 7.55297393e-03, 8.03503022e-03, 0.01125780,
          3.62405530e-03, 3.53820808e-03, 5.74825192e-03, 6.73937239e-03,
          5.36814379e-03, 0.02536346, 0.01726813, 0.01379467, 0.09464588,
          0.03860792, 0.01689261, 0.01945419, 0.04770285, 0.29214704,
          0.02194697, 0.04658334, 0.29214704, 0.29214704, 0.18760832,
          0.09484121, 0.29214704, 0.23128669, 0.03433225, 0.02927624,
          0.20068809, 0.15719920, 0.05664883, 0.05009346, 0.13531151,
          0.03573482, 0.02230009, 0.02379690, 0.01528305, 4.18278202e-03,
          8.52111727e-03, 0.02340034, 0.04528627, 0.02281792, 0.03073877,
          0.01363837, 0.01416211, 0.04054683, 0.01908026, 0.01597301,
          0.02534048, 0.29214704, 0.04018940, 0.02777441, 0.15753032,
          0.19323483, 0.06154283, 0.13519697, 0.29214704, 0.16311462,
          0.07483765, 0.01063333, 0.09093667, 0.04110852, 0.03318519,
          0.12811364, 0.23383106, 0.07285477, 0.04393146, 3.95407714e-03,
          7.05405697e-03, 5.31801907e-03, 0.02341339, 0.02276856,
          0.07684141, 7.82748219e-03, 0.01148805, 5.92031935e-03,
          6.78465655e-03, 9.63856000e-03, 6.81436667e-03, 7.63511844e-03,
          3.60685284e-03, 0.01547539, 9.11778770e-03, 6.04962558e-03,
          0.01822098, 0.03672454, 0.02335076, 0.01436910, 0.01267517,
          0.01686404, 0.01346941, 2.83351634e-03, 0.01545982, 0.02924268,
          0.03849597, 0.04510537, 0.01376125, 0.01524706, 4.56872256e-03,
          2.02738494e-03, 8.22743494e-03, 9.49982740e-03, 0.01335376,
          0.01465251, 6.07569562e-03 ]
      - [ 0.03540867, 0.03599040, 0.01261357, 0.02024345, 0.01166172, 0.,
          0.01208444, 0.02457326, 0.05712618, 0.04472317, 0.07103006,
          0.07383742, 0.03278453, 2.54472182e-03, 0.06957400, 0.08186167,
          0.08991983, 0.03139702, 0.03873242, 0.07398678, 0.07171930,
          0.05887418, 0.06390630, 0.06054867, 0.01436600, 0., 0.,
          0.01186909, 0.03085119, 0.03428407, 0.04314347, 0.04570188,
          0.08629894, 0.07344731, 0.08861893, 0.01319711, 0.02154072,
          0.01790959, 0.04331287, 0.05911946, 0.19049154, 0.17317425,
          0.21178629, 0.06174200, 0.10188641, 0.05564554, 0.08212142,
          0.26152325, 0.08824501, 0.02205876, 0.04400147, 0.10055365,
          0.13484712, 0.13893548, 0.17139016, 0.11602555, 0.03934813,
          6.08047610e-03, 0., 0.02169866, 0.06188217, 0.12152695,
          0.09865150, 0.06390574, 0.07659917, 0.08155045, 0.07212017,
          0.05449783, 0.05050762, 0.01353113, 0.06321496, 0.04672758,
          0.15631872, 0.17925081, 0.15221329, 0.13993230, 0.20838864,
          0.13242611, 0.11393593, 0.08619513, 0.13081928, 0.02311517,
          0.01823149, 0.11884258, 0.17183654, 0.19124311, 0.16810445,
          0.22397360, 0.03572889, 0.02062132, 0.01108445, 0.03159506,
          0.10035697, 0.15260792, 0.07293025, 0.05064870, 0.04682089,
          0.01655563, 0.01339764, 0.02336029, 0.02304102, 0.01177812,
          0.01907932, 0.03689114, 0.09564214, 0.03779015, 0.03464930,
          0.09625223, 0.06655931, 0.06300097, 0.04562636, 0.09021113,
          0.05634772, 0.05275972, 0.04528296, 0.10689366, 0.11667969,
          0.10614821, 0.14884992, 0.08500326, 0.02217195, 0.02278588,
          0.02281396, 0.03138805, 0.04886810, 0.03271455, 0.05561623,
          0.03467851 ]
      - [ 8.28918070e-04, 3.72959697e-03, 4.48894873e-03, 0.12727761,
          0.12930143, 3.78486980e-03, 0., 8.28918302e-04, 0.,
          8.56077299e-03, 0.01176602, 0.27839762, 0.24561702,
          6.01938879e-03, 0., 0., 0., 0.01340325, 0.01770921, 0.27839762,
          0.17889918, 6.00226875e-03, 4.72675869e-03, 0., 8.04108195e-03,
          5.16823307e-03, 5.74800977e-03, 0.03003815, 0.02092058,
          1.45940436e-03, 2.38879560e-03, 7.78614485e-04, 0.01805048,
          0.03751830, 0.04860645, 0.23519692, 0.27839762, 0.03751230,
          0.04962735, 9.08493903e-03, 0.04643588, 0.09322381, 0.15541734,
          0.27839762, 0.27839762, 0.04753044, 0.06752545, 0.03753873,
          0.04565156, 0.05865645, 0.15742706, 0.27839762, 0.27839762,
          0.08256561, 0.05607910, 0.04194041, 5.23475884e-03,
          3.74526158e-03, 0.02993925, 0.04810068, 0.03712123, 0.02264725,
          0.03159404, 0.02713293, 0.07342368, 0.05682228, 0.03347784,
          0.02044200, 0.05516393, 0.03230484, 0.10202429, 0.04896242,
          0.11685193, 0.11600161, 0.15861194, 0.08119078, 0.10272814,
          0.02849137, 0.07631272, 0.08823802, 0.10165495, 0.05156965,
          0.08735339, 0.05510994, 0.07102790, 0.06242975, 0.09253386,
          0.09259962, 0.01737479, 1.62614300e-03, 8.73739179e-03,
          7.80411018e-03, 7.82978535e-03, 0.04042938, 0.05609728,
          0.04453731, 6.09050365e-03, 4.27656621e-03, 2.70954613e-03,
          4.15936531e-03, 4.49527800e-03, 1.64919440e-03, 6.48601307e-03,
          4.53814678e-03, 0.01912027, 0.02595815, 0.01006778,
          5.70175750e-03, 0.01081578, 3.35371587e-03, 7.71520287e-03,
          0.01449240, 0.01364992, 0.01815687, 8.75372346e-03, 0.01721100,
          9.18823946e-03, 3.51813016e-03, 9.51400865e-03, 0.02248274,
          5.26890857e-03, 1.71595556e-03, 4.00177669e-03, 7.40822265e-03,
          6.56840252e-03, 0.01322080, 7.76583049e-03, 3.71973729e-03 ]
      - [ 2.92452797e-03, 5.40303008e-04, 6.93167036e-04, 0.03201403,
          0.08720657, 0.12354019, 0.02712983, 3.29131656e-03, 0.03761309,
          3.78212100e-03, 4.76362323e-03, 0.02029992, 0.03578727,
          0.04298865, 0.03502655, 0.06377947, 0.08651794, 4.65385121e-04,
          6.05014758e-03, 0.01762357, 0.02470131, 0.01641207, 0.01534784,
          0.10160375, 0.05106580, 2.16013938e-03, 7.05293147e-04,
          6.57196110e-03, 0.01247741, 9.08707269e-03, 5.29823592e-03,
          0.04563250, 0.01058976, 1.31238985e-03, 9.31582600e-03,
          0.10061593, 0.18622941, 0.19047889, 0.11776476, 0.05578086,
          0.22807099, 0.01295699, 0.07041356, 0.09854235, 0.17303029,
          0.16464974, 0.17860606, 0.22807099, 0.04783531, 9.48891882e-03,
          0.05205218, 0.16500653, 0.22807099, 0.10736849, 0.07664922,
          0.07614103, 4.02976852e-03, 1.74688967e-03, 5.38679631e-03,
          0.01886473, 0.02141022, 0.01724409, 0.01716615, 5.41835045e-03,
          0.03264719, 0.10358428, 0.19728979, 0.05197291, 0.09942862,
          0.14448303, 0.04323052, 0.04579748, 0.17679673, 0.16280410,
          0.22807099, 0.16394415, 0.22807099, 0.13717249, 0.06546082,
          0.18629229, 0.06875081, 0.05493695, 0.11939705, 0.17595625,
          0.21243630, 0.02768057, 0.02164878, 0.03147438, 8.26894306e-03,
          1.41877646e-03, 7.02569820e-03, 0.01377314, 9.08039976e-03,
          8.01221188e-03, 0.01319281, 0.02049060, 0.01589290, 0.12958170,
          0.15062161, 0.04537271, 0.01095101, 0., 4.24262427e-04,
          0.01216819, 0.04664176, 0.07864220, 0.08964161, 0.03482132,
          0.03570304, 1.56351854e-03, 7.29935383e-03, 0.06101370,
          0.07246967, 9.40405112e-03, 0.01899813, 0.05571530, 0.05022168,
          2.87268497e-03, 2.19586422e-03, 0.07248489, 0.05122842,
          7.14914699e-04, 7.83349853e-04, 3.31903202e-03, 7.53872981e-03,
          4.33334149e-03, 2.10761861e-03, 0.05817668 ]
      - [ 0.01436840, 2.91156536e-03, 2.53816659e-04, 7.32993707e-03,
          0.05612002, 0.05767091, 2.62188283e-03, 0.01439915, 0.10071144,
          2.29300419e-03, 2.23137857e-03, 0.01129846, 0.02664608,
          0.01105710, 1.51755719e-03, 0.10032601, 0.11601142,
          3.53915174e-03, 2.51301867e-03, 4.60113632e-03, 6.52034115e-03,
          1.27248152e-03, 1.91064971e-03, 0.11470157, 0.04829219,
          1.05341163e-03, 3.65142594e-03, 2.97104265e-03, 6.91383146e-03,
          4.36604489e-04, 3.49948509e-03, 0.04796702, 7.49837281e-03,
          5.00129722e-03, 0.04321336, 0.04456896, 0.23693621, 0.13227949,
          5.25702583e-03, 9.52073373e-03, 0.23693621, 0.05951046,
          0.14288038, 0.08748838, 0.23693621, 0.12552658, 0.08660656,
          0.23693621, 0.17163026, 0.06839763, 0.01586497, 0.18030170,
          0.23693621, 0.05967418, 0.10588468, 0.16147342, 4.63134050e-03,
          5.29581588e-03, 7.38514075e-03, 0.01660632, 0.03758757,
          7.28832697e-03, 4.38168179e-03, 4.90979804e-03, 0.01038245,
          0.01419366, 0.07031379, 0.19346365, 0.19909342, 0.03831364,
          9.02088918e-03, 7.06565380e-03, 0.23693621, 0.07848559,
          0.06237806, 0.18018511, 0.17723000, 0.10653290, 0.05534774,
          0.23693621, 0.14064384, 0.11200554, 0.02884363, 0.13045919,
          0.16810967, 0.01453143, 0.02019405, 0.16922458, 3.82214878e-03,
          3.88932484e-03, 7.05449935e-03, 0.03278761, 0.02089239,
          0.01728375, 4.55103116e-03, 5.89788519e-03, 0.01785286,
          0.04845937, 0.10194454, 0.05889667, 0.01082442, 4.15202434e-04,
          4.52278974e-03, 0.02740462, 0.09367470, 7.03445030e-03,
          0.03283673, 0.03912575, 0.01281702, 3.80030740e-03,
          3.61486478e-03, 0.10560771, 0.12439927, 1.14577834e-03,
          8.79808981e-03, 7.08719902e-03, 6.20934134e-03, 7.38218520e-03,
          3.27813881e-03, 0.12002527, 0.06136280, 3.87472886e-04,
          1.06607378e-03, 4.60548466e-03, 2.45470856e-03, 7.47393351e-03,
          4.24054218e-03, 0.05454943 ]
      - [ 0.02949588, 7.99928734e-04, 2.20772321e-03, 4.01162030e-03,
          0.01428555, 0.04907172, 0.05346219, 0.03055058, 0.11902732,
          2.34688865e-03, 1.42077764e-03, 5.36100939e-03, 0.03079919,
          0.02607363, 0.02403831, 0.12882005, 0.11275460, 2.22562789e-03,
          5.41293249e-03, 9.33357235e-03, 0.01107449, 2.34547514e-03,
          3.34669277e-03, 0.14628582, 0.05179243, 9.38677054e-04,
          1.31202815e-03, 8.09275825e-03, 0.01650951, 0.01128191,
          0.01648875, 0.05285488, 2.92002247e-03, 1.93534116e-03,
          2.38508289e-03, 0.06352517, 0.11263718, 0.08889656, 0.04387122,
          2.74632545e-03, 0.16865382, 0.14251968, 0.20988464, 0.17511486,
          0.16092600, 0.21583863, 0.10340622, 0.18719417, 0.09497934,
          0.09085722, 0.09171903, 0.21583863, 0.21189439, 0.09359145,
          0.10584500, 0.15994984, 0.01211628, 8.04130174e-03,
          1.92465237e-03, 7.98513833e-03, 7.66726444e-03, 1.71096588e-03,
          5.76881040e-03, 0.01737163, 4.33227699e-03, 0.04092491,
          0.07522825, 0.10238382, 0.10979442, 0.01878790, 1.59814046e-03,
          4.31129150e-03, 0.21583863, 0.10745674, 0.19622082, 0.21583863,
          0.17099848, 0.17219280, 0.02449313, 0.18632823, 0.21583863,
          0.07364138, 0.11277699, 0.17844483, 0.12326476, 0.04300728,
          0.02949381, 0.11882263, 0.01591335, 7.40080932e-03,
          1.41950569e-03, 8.16990808e-03, 5.84943220e-03, 5.32314228e-03,
          8.43846705e-03, 0.02287565, 0.03007688, 0.04666897, 0.06922212,
          0.02148410, 0.01343944, 5.19008795e-03, 0.01355933, 0.02257211,
          0.10493270, 0.03436751, 0.06066035, 0.03611387, 0.01944014,
          6.89507276e-03, 1.08281779e-03, 0.11989517, 0.15041111,
          8.37739278e-03, 7.29966583e-03, 3.48397857e-03, 5.14390133e-03,
          6.54171640e-03, 0.01049918, 0.12440299, 0.07161621,
          3.01102386e-03, 2.05953140e-03, 1.73067383e-03, 2.65661208e-03,
          2.93442560e-03, 4.43542702e-03, 0.05611625 ]
      - [ 0.03855762, 0.02811525, 9.17537510e-03, 0.02769906, 0.02369809,
          9.51892510e-03, 3.30479559e-03, 0.02863865, 0.06966586,
          8.54243338e-03, 0.04707246, 0.13830459, 0.11201767, 0.07502590,
          0.02699241, 0.05134589, 0.01626471, 0.02274568, 0.05660104,
          0.04985872, 0.03158397, 0.03987915, 0.04650357, 0.07633983,
          6.49250718e-03, 0.01046099, 0.02531160, 0.01098593,
          8.87075812e-03, 0.04366086, 0.05701077, 0.03325446, 0.08622693,
          0.06744982, 0.03927263, 0.03923776, 0.08740364, 0.03261647,
          0.01299747, 0.07336578, 0.05200862, 0.01020369, 0.20896809,
          0.24975263, 0.24975263, 0.20399033, 0.05616824, 0.07544041,
          0.02348784, 0.01956361, 0.06632259, 0.10641718, 0.09920838,
          0.06772501, 0.03458238, 0.04446869, 0.02584753, 0.01165231,
          0.02319067, 0.02088470, 0.02955018, 0.04544757, 0.01425243,
          0.04193733, 0.16294992, 0.03974028, 0.02770722, 0.02832607,
          0.07410910, 0.07516101, 0.10090249, 0.12995471, 0.23045880,
          0.09098412, 0.07379559, 0.20081265, 0.24975263, 0.24975263,
          0.24975263, 0.16201486, 0.04597311, 0.02163923, 0.05598493,
          0.17030986, 0.19835554, 0.11136286, 0.06667383, 0.11556734,
          0.03170954, 0.01819319, 0.03451972, 0.03264079, 0.01715034,
          0.01555733, 7.38185830e-03, 0.03648453, 0.06497933, 0.03237109,
          0.01557313, 0.02982534, 0.02972048, 0.04135387, 0.06496724,
          0.04608471, 0.08107933, 0.06322073, 0.02082719, 0.08435377,
          0.12264706, 0.07067290, 0.09413191, 0.12629774, 0.02248194,
          0.07867645, 0.02481658, 0.06709041, 0.11790948, 0.09185908,
          0.02124345, 0.11578549, 0.01877987, 0.04361432, 0.02789064,
          0.01465340, 0.01814601, 0.01672785, 6.79855375e-03, 0.01923238 ]
      - [ 5.38972765e-03, 5.82467415e-04, 1.54801609e-03, 0.02653915,
          0.02405177, 0.04624466, 0.02626927, 4.21944028e-03,
          9.39327851e-03, 7.69988867e-03, 5.22660278e-03, 7.57796038e-03,
          0.01254401, 0.03118542, 0.03652632, 0.03401776, 0.01714277,
          8.85803346e-03, 0.01296421, 9.36639216e-03, 0.01568499,
          0.01904731, 0.02900625, 0.01843656, 0.01801243, 2.71975226e-03,
          8.86812806e-03, 0.02828648, 0.06257126, 0.05193364, 0.02824252,
          0.01674530, 8.83145351e-03, 3.25619965e-03, 0.01524316,
          0.08605037, 0.09970910, 0.08373865, 0.03443506, 0.01180201,
          0.01748690, 0.02558015, 0.05009854, 0.06609316, 0.16275835,
          0.19214807, 0.09268717, 0.04837471, 0.10476273, 0.05761712,
          0.05546148, 0.08605561, 0.07408144, 0.03408157, 0.09628836,
          0.05060375, 0.03604235, 0.04798126, 0.02109433, 0.23404163,
          0.23404163, 0.03596479, 0.06436199, 0.01726828, 0.06207478,
          8.02590698e-03, 4.64948453e-03, 0.06080087, 0.11740158,
          0.03490803, 0.01272863, 0.05301822, 0.10428822, 0.08299837,
          0.23404163, 0.21092494, 0.23404163, 0.09721167, 0.01017978,
          0.04077881, 0.19627231, 0.09716447, 0.11279648, 0.17066236,
          0.12086678, 7.93433748e-03, 0.01571063, 0.07438812, 0.08285146,
          0.04719891, 0.01157049, 0.23404163, 0.23404163, 0.01137330,
          0.03719712, 0.05529868, 0.16259453, 0.01327108, 0.,
          9.89023689e-03, 0.01290608, 3.86092556e-03, 0.01444425,
          0.14901805, 0.23404163, 0.12144297, 0.08650293, 0.02974574,
          0.03676191, 7.69883534e-03, 3.58673884e-03, 0.18718925,
          0.23316820, 0.06868783, 0.02352526, 0.03046914, 0.03083145,
          2.26874556e-03, 3.00738402e-03, 0.07802967, 0.10686429,
          0.01752755, 4.83373553e-03, 0.04389548, 0.11608510, 0.02005294,
          0.05248523, 0.06094831 ]
      - [ 7.89504871e-03, 6.93996483e-03, 4.36472427e-03, 9.39179212e-03,
          0.01518487, 6.65933546e-03, 7.56672863e-03, 0.01250793,
          0.03746652, 0.03200597, 0.01905624, 0.03780368, 0.03622126,
          0.02489717, 0.01924052, 0.04243231, 0.04004014, 0.07002410,
          0.04698470, 0.06271792, 0.04835864, 0.01621261, 0.01655099,
          0.03722149, 0.03770971, 0.03345089, 0.01308142, 8.05130322e-03,
          0.02097176, 0.02560264, 0.01921227, 0.01498982, 0.05560360,
          0.01783566, 0.02976231, 0.03201032, 0.05696490, 0.03254132,
          0.01889736, 0.07742998, 0.19015005, 0.05144662, 0.04486908,
          0.15145704, 0.08937783, 0.07471481, 0.20440708, 0.15652250,
          0.22501452, 0.10433657, 0.07425050, 0.22666962, 0.16635136,
          0.09727133, 0.05688233, 0.20623259, 0.06516589, 0.03058164,
          0.03527731, 0.12980144, 0.04961461, 0.03485198, 0.05217271,
          0.10200583, 0.06064267, 0.03217445, 0.02664868, 0.04502587,
          0.05152505, 0.09280138, 0.03922668, 0.08199412, 0.26761141,
          0.08649021, 0.03824186, 0.10461575, 0.10130545, 0.13745542,
          0.22710030, 0.22343029, 0.24617842, 0.04177975, 0.10210374,
          0.17549606, 0.11419700, 0.12847269, 0.09570339, 0.27372095,
          0.08350261, 0.03914522, 0.06272130, 0.13466267, 0.05449628,
          0.04377098, 0.01712753, 0.06556999, 0.02717185, 0.01548658,
          5.22314291e-03, 0.01131210, 0.01388439, 8.01751204e-03,
          0.01906488, 0.04121909, 0.05082281, 0.03555867, 0.01972339,
          0.02422976, 0.03540515, 0.02708334, 0.04039985, 0.09963343,
          0.11134822, 0.03585655, 0.04170578, 0.03037770, 0.02939339,
          0.04433860, 0.05334516, 0.08116429, 0.05703268, 0.03931561,
          7.16663618e-03, 0.03620600, 0.01878443, 0.03002986, 0.01562570,
          0.03749645 ]
      - [ 0.06563591, 0.01918322, 0.01612008, 0.07137945, 0.03571339,
          1.97467729e-04, 0., 0.06744604, 0.24414140, 0.02343672,
          3.25973774e-03, 2.06421269e-03, 2.12327950e-03, 2.82096771e-05,
          5.66156395e-03, 0.21847440, 0.24414140, 0.03048879,
          2.43957984e-04, 8.41101073e-03, 7.47155212e-03, 2.58252630e-03,
          1.60605635e-03, 0.18453109, 0.09432383, 4.70103649e-03,
          4.02191770e-04, 0.06585720, 0.09180033, 0.01949098, 0.02904573,
          0.06298108, 0.06339392, 0.01497549, 5.79566136e-03, 0.14218140,
          0.14486492, 5.72785875e-03, 5.03844488e-03, 0.06297452,
          0.07453298, 0.05969674, 0.03859288, 0.04793065, 0.01391452,
          0.01065608, 0.01537881, 0.04483838, 0.04791452, 0.03981949,
          0.01662402, 0.04431314, 0.02313285, 0.02956635, 0.03839046,
          0.07134112, 0.01944589, 8.51907488e-03, 2.15956382e-03,
          0.24414140, 0.24414140, 4.87895682e-03, 4.88944026e-03,
          0.01662090, 0.08089876, 0.01390411, 5.70569746e-03, 0.14107399,
          0.16521931, 0.01301091, 0.01055254, 0.06425702, 0.07582457,
          0.05186730, 0.02463392, 0.04791370, 0.02896045, 0.04000938,
          0.03056378, 0.03938212, 0.03672155, 0.07188030, 0.04255661,
          0.04621873, 0.01992420, 0.02860868, 0.03648673, 0.03861507,
          0.02701521, 0.02048010, 0.01009266, 0.24414140, 0.24414140,
          5.24745788e-03, 0.02620444, 0.01771112, 0.08920822,
          2.87736696e-03, 2.71347072e-03, 0.05319109, 0.09473249,
          0.02818104, 0.03086528, 0.08928087, 0.20728782, 0.01172127,
          0.01451016, 0.03474579, 0.02579265, 0.01828449, 0.02586908,
          0.24414140, 0.24414140, 0.02008482, 0.01386483, 0.03901529,
          0.02781523, 0.01066597, 0.01959078, 0.24414140, 0.16640024,
          0.08099540, 3.87933338e-03, 0.12423289, 0.10190065,
          2.93474714e-03, 5.26190782e-03, 0.15646496 ]
      - [ 0.04881304, 8.16104654e-03, 0.02626702, 0.04146798, 0.01039903,
          6.11808198e-03, 0.03613522, 0.09325882, 0.23057362,
          8.47463496e-03, 5.61748026e-03, 0.02355148, 0.02323583,
          1.98350521e-03, 0.01957105, 0.24282657, 0.21079591, 0.01069105,
          0.01360433, 0.01340436, 0.01762163, 0.01759433, 0.02470983,
          0.24282657, 0.03121524, 0.01364920, 0.02574962, 0.02000866,
          0.04912392, 0.04721256, 0.02358499, 0.09155062, 0.02810229,
          3.08515388e-04, 0.01795139, 0.05593494, 0.05841306, 0.01043135,
          9.62532219e-03, 0.04783229, 0.15299159, 0.03525465, 0.05470555,
          0.11692344, 0.11626314, 0.02736366, 0.01309133, 0.18264741,
          0.24282657, 0.20306253, 0.11743021, 0.10186823, 0.09147225,
          0.05720463, 0.04434901, 0.24282657, 0.16397305, 0.06679030,
          0.05859207, 0.01366408, 0.03190698, 0.04598745, 0.05436343,
          0.11247525, 0.01350045, 2.34801299e-03, 3.10361409e-03,
          0.03965965, 0.05353124, 0.01518692, 6.97143469e-03, 0.01222195,
          0.03061658, 0.01949830, 0.03656039, 0.24282657, 0.20225845,
          0.01584354, 0.03229952, 0.02392785, 0.05789987, 0.09580418,
          0.15677610, 0.24282657, 0.24282657, 0.16884705, 0.12451559,
          0.08993994, 0.04429058, 0.05281646, 0.05245203, 0.06786090,
          0.06803396, 0.04660833, 0.05494225, 0.05771897, 0.01402054,
          1.40602957e-03, 1.22832169e-03, 4.29363735e-03, 8.15946516e-03,
          0.01131259, 0.01931814, 0.02487499, 0.09131251, 9.41881072e-03,
          3.52523476e-03, 0.03492757, 0.01975937, 1.18804933e-03,
          0.03087413, 0.07557369, 0.11045944, 0.01475346, 0.01691943,
          0.06616076, 0.04390743, 0.02410359, 0.07750756, 0.08807319,
          0.02367660, 0.01568908, 5.38282702e-03, 0.02178351, 0.02701577,
          0.01826019, 0.04231236, 0.02329594 ]
      - [ 0.04408089, 0.04381601, 0.03189827, 0.02248017, 0.02563901,
          0.03235276, 0.01062871, 0.01384727, 0.02540753, 0.04388222,
          0.05650731, 0.12829660, 0.08811523, 0.03706208, 0.01651531,
          0.01622873, 0.03362355, 0.14389718, 0.08458624, 0.21672747,
          0.09603675, 0.04786634, 0.02557891, 0.03137104, 0.02013024,
          0.02478904, 7.66768446e-03, 0.06130430, 0.04854037, 0.05750326,
          0.08263151, 0.09106913, 0.11657169, 0.04061299, 0.04110250,
          0.02525712, 0.03285369, 0.03112359, 0.01354165, 0.04473400,
          0.13412985, 0.09516988, 0.11153048, 0.11605483, 0.11515320,
          0.02854141, 0.04925048, 0.05059385, 0.26081386, 0.08680152,
          0.06459423, 0.26081386, 0.17029344, 0.04275578, 0.12254465,
          0.26081386, 0.13312541, 0.04389251, 0.01328072, 0.22622694,
          0.26081386, 0.09576528, 0.09153914, 0.21001607, 0.03439324,
          0.01725604, 8.48570652e-03, 0.01374246, 5.28393872e-03,
          0.01326235, 0.01398445, 0.01889371, 0.06176519, 8.66176933e-03,
          0.01564522, 0.02805224, 0.04389483, 0.05238551, 0.09921710,
          0.07612263, 0.10961941, 0.02065942, 0.03175600, 0.10207209,
          0.08095503, 0.01746689, 0.06694302, 0.13218796, 0.05304692,
          5.95011888e-03, 5.49551658e-03, 0.26081386, 0.26081386,
          0.01998446, 0.16515267, 0.11930594, 5.82166528e-03,
          2.56129703e-03, 7.43349129e-03, 2.49970122e-03, 3.13996314e-03,
          2.92797363e-03, 4.70342347e-03, 5.28277643e-03, 0.01249937,
          0.01025511, 6.41784957e-03, 0.01263230, 8.60361103e-03,
          0.02497998, 0.02287673, 0.02888103, 0.03125449, 0.02097539,
          0.01159405, 0.03338236, 0.03032791, 0.01454529, 0.02116526,
          0.03206855, 0.04217384, 0.01046152, 2.49166088e-03, 0.08231682,
          0.04242855, 8.19844939e-03, 0.07601250, 0.04141193 ]
      - [ 0.02129242, 9.09515005e-03, 0.02009827, 0.04285148, 0.03903449,
          8.12702440e-03, 2.53196619e-03, 0.01040005, 0.13627046,
          0.03442512, 0.03729095, 0.07607638, 0.04736127, 0.09822316,
          0.06633189, 0.14046475, 0.02416803, 5.44678327e-03,
          8.31754599e-03, 0.14042078, 0.09372731, 0.08746669, 0.02457096,
          0.06338348, 6.36706408e-03, 3.27424379e-03, 1.97135401e-03,
          0.03766629, 0.04172177, 6.07965561e-03, 7.00040255e-04,
          0.01506643, 0.05137404, 0.02712506, 0.02766105, 0.09034386,
          0.12046824, 0.02556188, 2.72297766e-03, 0.03161898, 0.22374836,
          0.13701756, 0.06394704, 0.22374836, 0.18206283, 0.12729384,
          0.22374836, 0.22374836, 0.19017676, 0.06854461, 0.04913491,
          0.22374836, 0.11601675, 0.11573682, 0.10223271, 0.13947034,
          0.02549790, 0.04890816, 8.19981284e-03, 0.09056069, 0.11247484,
          0.02337574, 0.01817053, 0.04951802, 0.03096611, 0.01961426,
          0.04008064, 0.09375346, 0.08253686, 8.14356469e-03, 0.01141139,
          0.04679851, 0.11182804, 0.04183567, 0.14711419, 0.21048032,
          0.22374836, 0.06080667, 0.02608158, 0.15068091, 0.13738269,
          0.04055951, 0.03752870, 0.22374836, 0.14740759, 0.05060351,
          0.01372989, 0.09941415, 0.04976508, 0.01834100, 4.23565554e-03,
          0.14399023, 0.16401139, 0.02819340, 0.01499611, 0.05084514,
          0.02345626, 4.81857266e-03, 2.19684117e-03, 0.03256305,
          0.01114916, 8.69620498e-03, 9.28739738e-03, 0.02316647,
          0.07504334, 3.50063224e-03, 0.01128363, 0.07339025, 0.04445552,
          4.81910864e-03, 0.04672984, 0.09273888, 0.10428145,
          2.25852593e-03, 0.01593367, 0.08852889, 0.03863122,
          6.63746893e-03, 0.01608023, 0.11538993, 0.03548015,
          5.37994271e-03, 0.01523124, 0.02582817, 0.05512909,
          2.83490680e-03, 8.39149673e-03, 0.05065005 ]
      - [ 0.01490900, 1.52268982e-03, 0.02016712, 0.03111562, 0.02024066,
          1.03002146e-03, 4.08536568e-03, 0.01391442, 0.10879489,
          4.32714215e-03, 0.02335016, 0.02872135, 0.03069581,
          7.21014990e-03, 6.80894312e-03, 0.08111408, 0.08616442,
          0.01257659, 0.02092091, 0.02523660, 0.01496143, 0.01043790,
          2.96087982e-03, 0.07481025, 0.01488443, 0.01573401,
          3.69355478e-03, 0.01949269, 0.02399623, 0.01472597, 0.01229790,
          0.02591997, 0.03083790, 1.02996721e-03, 0.03559746, 0.14182495,
          0.10793978, 3.57587612e-03, 3.39330174e-03, 0.03132695,
          0.22916707, 0.04931592, 0.07617337, 0.16806677, 0.10413714,
          0.03016900, 0.01510909, 0.24304585, 0.11892530, 0.05560396,
          0.03968765, 0.24304585, 0.19326080, 0.06691528, 0.01478905,
          0.13050950, 0.01332580, 0.04948957, 0.01616446, 0.15618753,
          0.06314591, 0.01889475, 0.01640972, 0.03340536, 9.65632964e-03,
          0., 0.02210532, 0.17285489, 0.14215578, 0.01222171,
          3.15867923e-03, 0.01400887, 0.15896590, 0.03000016, 0.01630209,
          0.24304585, 0.22486189, 0.09442627, 5.94768627e-03, 0.24304585,
          0.05754816, 0.02539559, 0.01927414, 0.24304585, 0.24304585,
          0.06234417, 2.94604641e-03, 0.07398432, 0.02102676,
          3.55727097e-05, 2.50742864e-03, 0.18844841, 0.09645304,
          0.02126100, 3.62122641e-03, 5.63024450e-03, 0.03648525, 0.,
          7.58752646e-03, 0.03116187, 0.01363082, 0.01301406,
          9.34717432e-03, 0.05055788, 0.17731951, 1.14832241e-04,
          2.61867717e-06, 7.00419303e-03, 0.01192101, 1.94187975e-03,
          9.79742734e-04, 0.21581540, 0.16595133, 2.93706614e-03,
          0.02118490, 0.09199761, 0.04727926, 0.03599250, 4.83027135e-04,
          0.17000745, 0.05183723, 0.01427207, 5.71306283e-03, 0.04403038,
          0.01842445, 0.03190302, 1.35912572e-03, 0.03176293 ]
      - [ 0.01084993, 7.08961999e-03, 0.02326384, 0.06261197, 0.05803662,
          0.01941478, 8.92147794e-03, 7.28147430e-03, 0.06813946,
          0.06300374, 0.11046415, 0.08171134, 0.07019546, 0.08083695,
          0.03739163, 0.04265232, 0.05336146, 0.03588005, 0.03197976,
          0.13429490, 0.09080572, 0.03800505, 0.01600856, 0.04567209,
          0.01974075, 6.03330787e-03, 0.01112316, 0.08298124, 0.07691133,
          0.01587151, 8.31819139e-03, 0.01888184, 0.01846062, 0.01560116,
          6.10546861e-03, 0.16195893, 0.16204239, 0.01410410,
          7.63356173e-03, 0.02153685, 0.21316203, 0.15815306, 0.11146624,
          0.16984463, 0.15420264, 0.13992973, 0.12746222, 0.15815459,
          0.13647674, 0.04089653, 0.03212216, 0.20077950, 0.21316203,
          0.07893195, 0.04126627, 0.10738725, 0.02607425, 0.01013159,
          3.84614849e-03, 0.21316203, 0.21316203, 8.83281417e-03,
          4.99181915e-03, 0.01886068, 4.11388511e-03, 7.32407847e-04,
          1.70085486e-03, 0.15542255, 0.15525888, 2.63873069e-03,
          3.57641932e-03, 6.72312034e-03, 0.12857768, 0.05891674,
          0.05264243, 0.21316203, 0.21316203, 0.06703421, 0.09218530,
          0.08375619, 0.10621285, 0.06752816, 0.04417817, 0.16982388,
          0.19174175, 0.02749490, 0.04787186, 0.05305935, 0.01106934,
          7.71614257e-04, 2.49162153e-03, 0.20603721, 0.21316203,
          2.24378053e-03, 1.16606604e-03, 0.01002271, 0.01092743,
          3.22671258e-04, 1.28059590e-04, 0.05384820, 0.05103686,
          9.02299490e-03, 9.29786451e-03, 0.01579929, 0.10362279,
          5.29689481e-03, 0.05393767, 0.05568560, 0.05850882,
          2.02049175e-03, 0.03697652, 0.09748694, 0.08319590, 0.02491182,
          0.03821168, 0.02684051, 0.03667624, 4.14903974e-03,
          9.19945911e-03, 0.09075461, 0.01807454, 0.01022369, 0.01614823,
          0.08201334, 0.07331760, 2.10402021e-03, 2.34357920e-03,
          0.01928948 ]
      - [ 0.01712674, 1.95881934e-03, 1.16953091e-03, 0.04859823,
          0.04038364, 4.92004864e-03, 1.70518586e-04, 5.74457692e-03,
          0.04853896, 4.02437430e-03, 0.02865561, 0.05894084, 0.04409696,
          5.24920784e-03, 5.05743455e-03, 0.06427796, 0.02066939,
          5.96198952e-03, 0.03776994, 0.05876378, 0.06152850, 0.03213590,
          0.02619662, 0.07659528, 3.01909028e-03, 2.22692452e-03,
          4.46807453e-03, 0.06154445, 0.05615509, 0.01660170,
          9.73371323e-03, 0.01065291, 0.01688687, 1.30933593e-03,
          1.86966395e-03, 0.16364349, 0.14231002, 0.01774818,
          1.90515106e-03, 0.01216029, 0.21138556, 0.07561290, 0.08290121,
          0.21138556, 0.20633283, 0.09863100, 6.00043032e-03, 0.21138556,
          0.12466051, 0.08085648, 0.09674136, 0.21138556, 0.19471970,
          0.05995063, 0.05519496, 0.17385690, 9.31028835e-03, 0.01602781,
          0.01144676, 0.14526972, 0.20946835, 0.01718735, 3.39727779e-03,
          9.77493450e-03, 7.42412359e-03, 1.16255775e-03, 5.17428108e-03,
          0.16372702, 0.13761498, 6.00563781e-03, 2.23230757e-03,
          0.01098543, 0.20255545, 0.02668745, 0.05570877, 0.18330953,
          0.18054995, 0.02243822, 0.01156815, 0.20761183, 0.10260664,
          0.05257645, 0.19387737, 0.21138556, 0.17129715, 0.05273794,
          0.01714299, 0.13074982, 0.01142524, 2.20250641e-03,
          9.90031101e-03, 0.21138556, 0.18729493, 0.01116264,
          1.56537269e-03, 7.22563080e-03, 0.01387032, 2.02375450e-04,
          2.22119992e-03, 0.04481169, 0.04009937, 0.01683510, 0.02119948,
          0.02033573, 0.08853645, 2.32895161e-03, 4.09917766e-03,
          0.01810910, 0.01951894, 0.01034854, 0.01110835, 0.11480148,
          0.08197162, 0.01595624, 0.02343291, 0.03176861, 0.02942687,
          5.39273070e-03, 4.26152349e-03, 0.13891503, 0.03576915,
          0.03126583, 0.03075082, 0.05010699, 0.07299061, 7.10037351e-03,
          2.97341356e-03, 0.01517758 ]
      - [ 0.02468696, 6.06562477e-03, 0.01279099, 0.03990309, 0.03675137,
          0.01918654, 0.01616975, 0.01721799, 0.04831522, 0.04269106,
          0.02531876, 0.11314280, 0.08877638, 0.08998700, 0.03813380,
          0.04240625, 0.07021034, 0.06465404, 0.01278037, 0.09750894,
          0.06265768, 0.05159158, 0.05299121, 0.05942993, 0.03795336,
          0.02668850, 0.01512009, 0.02904171, 0.01551459, 1.11026585e-03,
          9.39383451e-03, 0.03619392, 0.02666193, 0.01096853, 0.01769549,
          0.09958079, 0.07922996, 0.06308446, 0.04011326, 0.02427214,
          0.07986957, 0.05049561, 0.12227105, 0.24780607, 0.24780607,
          0.20490451, 0.06335095, 0.06757930, 0.07729504, 8.86149518e-03,
          0.09304978, 0.24780607, 0.24780607, 0.19628726, 0.02314393,
          0.07301207, 0.02464398, 0.05923215, 0.04864241, 0.06610169,
          0.07171462, 0.01222445, 0.03515533, 0.01845518, 8.26914981e-03,
          8.47915187e-03, 4.46733274e-03, 0.09915411, 0.07721952,
          0.01173207, 9.59734723e-04, 5.25971595e-03, 0.01747493,
          0.01829693, 0.14465967, 0.24780607, 0.18981445, 0.09538908,
          1.59957539e-03, 9.88449063e-03, 0.03640614, 8.67230410e-04,
          0.16597813, 0.24780607, 0.24780607, 0.16141942, 0.01424214,
          0.05253003, 7.91021436e-03, 0.04840767, 0.06097484, 0.18068910,
          0.12023471, 4.95032454e-03, 0.01843138, 0.01239491,
          4.51379782e-03, 3.29174008e-03, 2.72701448e-03, 0.03982558,
          0.04363108, 6.33242168e-03, 3.70344409e-04, 3.64112412e-03,
          6.93955505e-03, 0.01136717, 0.04006716, 0.15601920, 0.10836780,
          0.02019461, 0.01791902, 6.52954029e-03, 0.07416284,
          1.87524967e-03, 0.04413857, 0.17128558, 0.12296412, 0.02838464,
          0.03306062, 0.08180840, 0.02733578, 7.63862394e-03, 0.03863505,
          0.08984937, 0.07828125, 1.19061721e-03, 0.01290828, 0.02916308 ]
      - [ 0.02037571, 2.51824409e-03, 0.03891875, 0.06061323, 0.03592951,
          7.33829383e-03, 2.93045864e-03, 7.23955454e-03, 0.13387996,
          0.01568571, 0.05618938, 0.07709669, 0.04952994, 0.03901407,
          0.06210121, 0.12561248, 0.08693685, 0.02404317, 0.04933184,
          0.05076117, 0.03864129, 8.99731647e-03, 0.03610153, 0.09038842,
          0.01726112, 4.78434935e-03, 0.02005708, 0.04415929, 0.08486709,
          1.10229233e-03, 6.40005292e-03, 0.01195885, 0.06493140,
          0.01025687, 0.04836304, 0.21947509, 0.16869918, 4.40297648e-03,
          1.75827520e-03, 0.01007438, 0.23045881, 0.02598556, 0.03293139,
          0.05622064, 0.03937020, 0.02344051, 0.02007560, 0.20974019,
          0.18357390, 0.02320120, 0.02350914, 0.19308315, 0.23045881,
          0.04123502, 0.05498550, 0.15559088, 0.02811248, 0.02657814,
          0.03158521, 0.09996966, 0.23045881, 0.01746651, 7.35655893e-03,
          5.28262975e-03, 0.01082443, 3.13015445e-03, 2.31853779e-03,
          0.18708186, 0.23045881, 9.15183313e-03, 7.97588564e-03,
          8.22333526e-03, 0.05581515, 0.01236608, 9.48241632e-03,
          0.04352728, 0.05383516, 0.01458781, 0.01212060, 0.06318289,
          0.04888820, 0.02720313, 7.77134672e-03, 0.23045881, 0.23045881,
          0.01348591, 0.01031235, 0.04906639, 3.82139022e-03,
          2.83231423e-03, 7.10371591e-04, 0.16121785, 0.23045881,
          0.01950332, 3.91244376e-03, 0.01158029, 0.02323033,
          8.82399618e-05, 0., 0.04888819, 0.08733177, 0.04467906,
          0.04952668, 0.03322330, 0.19371815, 9.60621866e-04,
          8.35259154e-04, 0.01423534, 0.02068946, 0.01772043, 0.01791347,
          0.22005574, 0.20212120, 0.03485767, 8.05899408e-03, 0.06602903,
          0.06180872, 8.62866268e-03, 4.66987584e-03, 0.20036142,
          0.02893588, 5.97968558e-03, 7.79916206e-03, 0.06723091,
          0.05829265, 0.02417312, 5.85190440e-03, 0.03778049 ]
      - [ 7.72419618e-03, 1.03861245e-03, 4.36809193e-03, 3.69215943e-03,
          1.18007581e-03, 4.12222580e-04, 1.30637991e-03, 3.48155177e-03,
          0.06553169, 8.19118228e-03, 6.91610062e-03, 6.68104924e-03,
          2.15621386e-03, 1.13928341e-03, 6.19907863e-03, 0.05434460,
          0.05533285, 7.35536637e-03, 2.93301512e-03, 4.32175538e-03,
          6.51807245e-03, 7.25230435e-03, 0.01041123, 0.05166365,
          5.01899282e-03, 2.11565616e-03, 1.95588148e-03, 3.40051809e-03,
          3.17303231e-03, 1.39309536e-03, 1.21391064e-03, 2.39942386e-03,
          0.01589252, 8.05556960e-03, 0.06195227, 0.08607327, 0.04557297,
          2.43089115e-03, 1.67212158e-04, 6.33481378e-03, 0.20559421,
          0.07359871, 0.14986312, 0.09322540, 0.04413268, 0.01180073,
          0.06219303, 0.22499700, 0.19495571, 0.02419589, 8.69523094e-04,
          0.08421921, 0.22192149, 0.12598836, 0.09617308, 0.19719423,
          8.17819871e-03, 7.64792378e-04, 1.67417212e-03, 0.04056371,
          0.08428673, 0.01954034, 7.45416339e-03, 6.66766847e-03,
          1.26736728e-03, 2.48938426e-03, 0.03626189, 0.16364442,
          0.14801688, 2.51420843e-03, 8.15736130e-04, 7.55971996e-04,
          0.14152701, 0.23676082, 0.23676082, 0.23676082, 0.23676082,
          8.13402422e-03, 0.02704388, 0.14743167, 0.06632654, 0.05293721,
          0.09957977, 0.23676082, 0.23676082, 0.06387239, 0.02971259,
          0.11768157, 3.82551341e-03, 6.59933488e-04, 1.33963814e-03,
          0.10632359, 0.14915149, 9.24269296e-03, 1.66781759e-03,
          3.73974815e-03, 2.59173894e-03, 2.61807349e-04, 0.01084644,
          0.08024666, 0.07623179, 9.76701267e-04, 9.29928385e-04,
          7.69164471e-04, 0.13100694, 0.03051074, 0.06633087, 0.13105460,
          0.12004551, 1.67913781e-03, 1.83447369e-03, 0.05160581,
          0.05072666, 0.01841547, 0.05037080, 0.18894053, 0.22049958,
          3.65494634e-03, 4.72350325e-03, 0.02130126, 1.76620367e-03,
          8.92175420e-04, 2.88343802e-03, 0.06057936, 0.07111791,
          4.63165197e-04, 7.60215335e-04, 2.41261278e-03 ]
      - [ 8.49723537e-03, 4.85824095e-03, 7.79462792e-03, 0.01467326,
          9.65332240e-03, 0.01097374, 7.27894600e-04, 7.91461486e-03,
          0.10566124, 6.93266327e-03, 2.99473386e-03, 0.08204070,
          0.05709887, 3.15743545e-03, 3.86144314e-03, 0.08332813,
          0.05726827, 0.01530358, 3.09683057e-03, 0.02492907, 0.04486910,
          5.27004525e-03, 0.01344211, 0.07565040, 0.02150706, 0.01018115,
          4.40208288e-03, 6.84120925e-03, 8.18972476e-03, 9.77271516e-03,
          4.84268228e-03, 0.02698227, 0.03641493, 7.23654544e-03,
          0.02419666, 0.02918038, 0.06613328, 0.08085120, 0.02840146,
          0.04578858, 0.21923506, 0.06107263, 0.04111622, 0.21923506,
          0.18226528, 0.06499007, 0.13487960, 0.17696698, 0.14830667,
          0.11900104, 0.10020443, 0.16391325, 0.21923506, 0.08184590,
          0.13243181, 0.19080186, 0.06638449, 0.06248209, 0.05559025,
          0.08997066, 0.17780077, 0.06102742, 0.05181043, 0.07895079,
          0.04959628, 4.42649750e-03, 2.20468454e-03, 7.57983606e-03,
          0.02867021, 0.10506617, 0.05383378, 0.05575715, 0.13120471,
          0.07152548, 0.05096475, 0.04451685, 0.10681302, 0.09945667,
          0.16209890, 0.21923506, 0.14568086, 0.16817626, 0.18252435,
          0.17573622, 0.17840044, 0.07181758, 0.15150219, 0.17568615,
          0.02010449, 0.03186901, 0.10464567, 0.21385510, 0.21923506,
          0.06643441, 6.00196188e-03, 0.01225725, 0.01717553,
          9.17093921e-03, 5.44389989e-03, 0.01274766, 0.01323693,
          7.54267350e-03, 5.04904427e-03, 7.31094647e-03, 0.02547001,
          9.97627061e-03, 7.38111278e-03, 0.01974870, 0.01444892,
          0.01620622, 0.05523948, 0.10421155, 0.03040788, 0.01212788,
          5.59684820e-03, 0.04900293, 0.02809914, 0.06475458, 0.04977267,
          0.09614126, 0.02020449, 0.01474469, 0.01484027, 0.04720262,
          0.05373690, 0.04946399, 8.54481012e-03, 0.03615668 ]
      - [ 0.01732383, 9.55510978e-03, 1.00095407e-03, 3.78765725e-03,
          6.66573085e-03, 9.59356874e-03, 0.01376278, 0.01430530,
          0.09083578, 0.03127348, 6.99281599e-03, 0.01846923, 0.01572140,
          0.01376049, 0.02546369, 0.02713364, 0.12295064, 0.01586659,
          0.01211110, 0.01544873, 8.78865831e-03, 0.01301850, 0.01329348,
          0.02971954, 0.02577610, 7.78979622e-03, 4.70967684e-03,
          9.04442370e-03, 0.01083324, 7.21461279e-03, 7.04642618e-03,
          0.01577526, 0.02473384, 0.02561188, 0.01238033, 0.03397859,
          0.05938393, 0.04235924, 0.05004218, 0.03716505, 0.25049686,
          0.11647836, 0.01485965, 0.13680048, 0.20691286, 0.14706029,
          0.09895944, 0.17997646, 0.25049686, 0.03738005, 0.01659787,
          0.07094330, 0.08669686, 0.14708108, 0.10193558, 0.17509872,
          0.06183110, 0.01090941, 0.02279659, 0.06338865, 0.08275412,
          0.05134802, 3.62797524e-03, 0.02587664, 0.01577102, 0.01020519,
          0.01468618, 0.04435959, 0.09411883, 0.04018704, 0.05748954,
          0.04326195, 0.21611202, 0.09466629, 0.01403930, 0.25049686,
          0.25049686, 0.21254133, 0.10124489, 0.14990689, 0.12953144,
          0.09938475, 0.02908940, 0.25049686, 0.23294455, 0.14913040,
          0.10388227, 0.08847037, 0.01613698, 0.01926135, 0.05284957,
          0.13364315, 0.06699949, 0.01265675, 8.71572457e-03, 0.01325561,
          0.01102531, 8.34910758e-03, 9.17530246e-03, 0.01617106,
          0.02226789, 0.02573672, 4.77584079e-03, 5.92558179e-03,
          0.07793763, 0.01306881, 0.01155495, 0.13566448, 0.17510968,
          0.08764843, 6.49737893e-03, 0.04665683, 0.05929625,
          9.47935507e-03, 0.01340281, 0.13193232, 0.07130947, 0.02620251,
          0.05604319, 0.03941683, 8.09730496e-03, 7.25123147e-03,
          0.02707271, 0.05955314, 0.03655143, 8.00489169e-03, 0.03441641,
          7.76564516e-03 ]
      - [ 9.20350011e-03, 5.73105644e-03, 3.92270507e-03, 3.60429683e-03,
          0.01246754, 6.21796725e-03, 8.40325560e-03, 0.01526125,
          0.04571831, 0.01275767, 0.01494172, 0.01972223, 0.04999556,
          5.81212994e-03, 0.01084980, 0.02806676, 0.05582838, 0.01625759,
          0.02719420, 0.02702783, 0.01777647, 7.60462228e-03, 0.02183917,
          0.02601404, 0.03009810, 4.94464301e-03, 4.03422490e-03,
          0.01287976, 0.01093535, 3.36575718e-03, 0.01691850, 0.01123157,
          0.03659743, 0.01925162, 0.03759472, 0.06463066, 0.08867329,
          0.01968304, 7.72195635e-03, 0.03809658, 0.24399333, 0.05162001,
          0.12362349, 0.13909996, 0.19367166, 0.05839995, 0.08603964,
          0.24399333, 0.19219103, 0.07998285, 0.03082961, 0.05827495,
          0.07621208, 0.03418479, 0.06252770, 0.12865639, 0.09828637,
          0.02278822, 0.01893817, 0.03522745, 0.03828291, 0.01582582,
          0.03492583, 0.03843888, 0.01262197, 1.69691257e-03, 0.05814045,
          0.10419986, 0.15657122, 0.02007949, 6.30008383e-03, 0.02441900,
          0.24399333, 0.18933713, 0.24399333, 0.24399333, 0.24399333,
          0.21473339, 0.24399333, 0.17350052, 0.12011320, 0.04688324,
          0.08102959, 0.22217523, 0.20939058, 0.08505756, 0.16870807,
          0.07949620, 0.02211513, 0.01189658, 0.01852702, 0.04872563,
          0.04476282, 0.01185521, 8.21479037e-03, 0.02265033,
          5.15201455e-03, 2.90788186e-04, 6.51111174e-03, 0.03735585,
          0.05837495, 0.01081534, 8.27358477e-03, 0.01126574, 0.08063149,
          0.09905411, 0.06086051, 0.04719842, 0.07049220, 0.02366765,
          0.03532084, 0.08450665, 0.07517032, 0.02636270, 0.02561820,
          0.04107675, 0.03439767, 0.01133322, 0.01762206, 0.03971565,
          9.87047702e-03, 1.29051448e-03, 0.01000615, 0.01993858,
          0.02826533, 0.01113063, 4.41028504e-03, 0.02408731 ]
      - [ 0.01552159, 0.01437685, 0.01914418, 0.05373297, 0.04763234,
          3.56827004e-05, 3.72229297e-05, 0.01336458, 0.07373714,
          0.02591906, 0.04797569, 0.07286859, 0.07655788, 2.49778910e-04,
          0.01603323, 0.07052825, 0.09089711, 0.03692233, 0.01888724,
          0.07040215, 0.06298055, 1.61235890e-04, 0.02728161, 0.11316357,
          0.03160828, 8.46997276e-03, 3.77323246e-04, 0.02039330,
          0.02159952, 1.12865120e-03, 0.02119746, 0.04816330, 0.01911971,
          5.56291256e-04, 6.81776972e-03, 0.16675478, 0.16971026,
          2.66708987e-04, 5.35154075e-04, 0.02879013, 0.12985088,
          3.19918059e-03, 0.02659808, 0.22981460, 0.22981460,
          4.65125730e-03, 0.02907711, 0.20271374, 0.17830041,
          4.61210916e-03, 8.68754927e-03, 0.22981460, 0.22981460,
          0.01063555, 0.01686194, 0.22981460, 0.02570548, 2.01055221e-03,
          3.15094879e-03, 0.07971704, 0.11198812, 0.01154751,
          9.85763036e-03, 0.04438176, 3.04500828e-03, 1.46592560e-04,
          7.99360918e-04, 0.15407997, 0.17194562, 1.72276737e-03,
          1.38162309e-03, 7.18764681e-03, 0.03669515, 1.93986518e-03,
          2.48167454e-03, 0.22981460, 0.22981460, 0.01607476,
          9.18682292e-03, 0.03969654, 0.22174852, 1.97396637e-03,
          4.08496754e-03, 0.22981460, 0.22981460, 7.53000705e-03,
          0.01169085, 0.21439816, 0.05317019, 3.06959893e-03,
          6.45534426e-04, 0.09194185, 0.08922660, 3.67959798e-03,
          5.05754165e-03, 0.06493751, 0.01485670, 1.30112065e-04,
          1.95505301e-04, 0.06804897, 0.05358769, 9.67159215e-03,
          0.01399769, 0.01326022, 0.06437028, 1.35307736e-03,
          5.40838111e-03, 0.09683293, 0.09273062, 0.01818835, 0.02743040,
          0.06169510, 0.14144562, 8.09040666e-03, 7.02151237e-03,
          0.11351459, 0.09675705, 0.02433245, 0.03981695, 0.13002044,
          0.07376662, 0.01270530, 2.62639456e-04, 0.02642823, 0.02229551,
          2.52069370e-03, 1.36502832e-03, 0.06155530 ]
      - [ 0.02086284, 8.66287667e-03, 0.01258708, 0.01628443,
          7.98815861e-03, 4.31191393e-06, 3.74036608e-05, 0.01344893,
          0.08041752, 0.02394444, 0.01117760, 0.04564932, 4.98520536e-03,
          3.88208806e-04, 5.24288462e-03, 0.05541174, 0.07272813,
          0.01140450, 0.01153677, 9.92214493e-03, 8.01038835e-03,
          3.63327120e-03, 2.34516733e-03, 0.05950259, 0.02417190,
          3.32327676e-03, 0.01054389, 4.33212984e-03, 8.95052403e-03,
          0.01172843, 9.06972401e-03, 0.02504044, 0.04609301, 0.01091220,
          0.03127293, 0.05925524, 0.05918872, 6.54397008e-04,
          2.57709675e-04, 0.03828759, 0.22839300, 0.08325976, 0.22839300,
          0.17265154, 0.13599077, 9.58827208e-04, 1.13311631e-03,
          0.22839300, 0.16234560, 0.01357004, 0.07213246, 0.22839300,
          0.22839300, 0.01461283, 4.05776640e-03, 0.14330402, 0.03500275,
          0.01467476, 0.04326751, 0.10593148, 0.17181870, 0.01032718,
          0.02978404, 0.03243664, 0.02278352, 6.67969696e-03, 0.01195094,
          0.08905272, 0.10108507, 6.45618374e-03, 2.25260574e-03,
          0.04093650, 0.22839300, 0.09333890, 0.22839300, 0.19308680,
          0.13598764, 2.51105707e-03, 2.24533747e-03, 0.22839300,
          0.10849038, 0.01279080, 0.08898427, 0.22839300, 0.22839300,
          0.01358220, 5.84704895e-03, 0.05580088, 0.02135256,
          7.48236955e-04, 6.43885974e-03, 0.19789620, 0.17393786,
          0.03312993, 9.43604670e-03, 0.01315906, 0.03969008,
          2.09817372e-04, 1.43222976e-04, 8.24965630e-03, 0.01546299,
          0.01936822, 9.31049511e-03, 0.04555832, 0.14896882,
          5.24513132e-04, 7.75850203e-04, 5.94506040e-03, 2.50600348e-03,
          2.45473293e-05, 1.83577358e-03, 0.16586639, 0.15213859,
          7.19918730e-03, 0.01772868, 0.05812157, 0.02144036, 0.01361034,
          2.74671847e-03, 0.12652752, 0.06311562, 0.01115973, 0.01179492,
          0.04237034, 0.02499449, 0.03515011, 1.05741597e-03, 0.02992740 ]
      - [ 0.02522382, 8.49009678e-03, 2.65729427e-03, 0.02390371,
          0.01721985, 1.80170429e-03, 2.02699797e-04, 0.02429676,
          0.09336863, 9.82808229e-03, 0.02584163, 0.01947597, 0.02816430,
          2.57386302e-04, 3.62481573e-03, 0.06788848, 0.09293340,
          1.95119472e-04, 4.22537932e-03, 0.04792622, 0.02961220,
          0.01101140, 0.01188000, 0.09247282, 0.01622037, 0.,
          5.45728300e-03, 0.02494656, 0.04326456, 0.04302686, 0.01064739,
          0.01964670, 0.07568032, 0.02995172, 5.26252436e-03, 0.14518343,
          0.08472856, 0.01607332, 0.01281936, 0.05388850, 0.22802897,
          0.04197488, 0.01051489, 0.10325130, 0.15497851, 0.09069790,
          0.16270077, 0.23308377, 0.20142165, 3.95883573e-03,
          8.78592487e-03, 0.04780943, 0.05947532, 0.01858729, 0.02439829,
          0.16142796, 0.02991429, 1.47316535e-03, 1.61662872e-03,
          0.07891283, 0.18298838, 0.11971760, 0.01796292, 0.03499138,
          0.03720079, 0.01248246, 1.26038503e-03, 0.19875222, 0.18529077,
          0.04529198, 0.04396746, 0.03007076, 0.18322410, 0.03437956,
          7.58540258e-03, 0.23308377, 0.23308377, 0.11076761, 0.17441984,
          0.19797492, 0.09493392, 5.16989222e-03, 8.29143450e-03,
          0.15551160, 0.16085455, 0.01234828, 0.02034085, 0.08132440,
          6.05446240e-03, 8.83899163e-04, 1.55391230e-03, 0.20975466,
          0.20100898, 0.01155549, 4.78496403e-03, 9.78465006e-03,
          0.03497963, 1.27475697e-03, 0.01285511, 0.03873151, 0.03929288,
          6.30475162e-03, 5.38553810e-03, 0.02561826, 0.17329708,
          1.06503838e-03, 1.96558703e-03, 0.12255859, 0.07167608,
          0.01133784, 7.43599096e-03, 0.13208649, 0.14348432, 0.01155022,
          0.01641252, 0.10729106, 0.09163552, 4.81176469e-03, 0.01320272,
          0.11260279, 0.02155456, 0.01704120, 0.01906095, 0.09092145,
          0.12063956, 9.38630849e-03, 5.38657699e-03, 0.03428033 ]
      - [ 6.21689600e-04, 1.55215457e-04, 4.64390469e-04, 0.04508331,
          0.04390897, 1.16553309e-03, 2.84414360e-04, 3.05731141e-04,
          0.02595394, 0.02920674, 0.02939657, 0.11835995, 0.10796186,
          2.42526527e-04, 0.03063246, 0.02527468, 0.01354937,
          6.88815629e-03, 8.25156644e-03, 0.09047833, 0.09475299,
          3.85743566e-03, 0.01925040, 0.01388035, 2.38360662e-04,
          8.86143767e-04, 6.64368796e-04, 0.05109165, 0.05355309,
          2.51969486e-03, 2.90681724e-04, 5.36561711e-04, 6.73759729e-04,
          3.12500022e-04, 7.76965870e-04, 0.13131253, 0.13208143,
          2.89537106e-03, 9.10711751e-05, 5.48860175e-04, 2.93733319e-03,
          0.02398294, 0.04053751, 0.28576079, 0.28576079, 4.93629882e-03,
          0.03380363, 3.69232334e-03, 1.84414082e-03, 0.01133998,
          0.02041001, 0.28576079, 0.28576079, 3.36079206e-03, 0.01455435,
          1.33803987e-03, 7.71325605e-04, 1.78090669e-03, 1.44704594e-03,
          0.14631918, 0.13995965, 2.65104813e-03, 9.28639725e-04,
          6.53915398e-04, 7.12612737e-03, 2.85284081e-03, 1.29522930e-03,
          0.14593601, 0.10963592, 7.28611485e-04, 5.15246065e-04,
          1.57525553e-03, 0.08918884, 0.06041477, 0.06453744, 0.28576079,
          0.28576079, 0.03401837, 0.11053959, 0.09247153, 0.04059121,
          0.05101038, 0.05453778, 0.28576079, 0.28576079, 6.75592897e-03,
          0.02586210, 0.03809890, 2.53218831e-03, 5.83428703e-03,
          2.93342257e-03, 0.17348625, 0.15600885, 1.47330586e-03,
          2.75339442e-03, 2.17054388e-03, 8.40250403e-03, 2.22723768e-03,
          6.91945152e-03, 0.05201977, 0.04486487, 1.38441881e-03,
          2.70480500e-03, 3.71917034e-03, 0.07310362, 6.08160859e-03,
          0.01541876, 0.08059863, 0.08163127, 1.81401498e-03,
          1.88342074e-03, 0.06885344, 0.04396956, 0.03618199, 0.03250531,
          0.10407118, 0.12084321, 0.01104573, 0.01303087, 0.05196254,
          2.74429587e-03, 0.01191090, 8.21120106e-03, 0.05363769,
          0.08753315, 2.45709764e-03, 1.41774607e-03, 2.61296076e-03 ]
      - [ 0.01434813, 0., 0.01265623, 0.06224927, 0.04792685,
          1.11282745e-03, 3.09930230e-03, 0.01463733, 0.11165211,
          3.15500936e-03, 0.01156589, 0.04877693, 0.03977994, 0.01817569,
          2.76897871e-03, 0.10671517, 0.07963176, 3.53034609e-03,
          0.01619696, 0.04082478, 0.04149189, 0.02008769, 8.37077107e-03,
          0.06260475, 0.01314885, 9.99575946e-04, 5.09569375e-03,
          0.02981735, 0.03552180, 0.02337483, 0.02762710, 9.22607910e-03,
          0.02556253, 5.86395385e-04, 2.00097682e-03, 0.18630436,
          0.17940658, 2.76837411e-04, 1.40616437e-03, 0.01496103,
          0.23120813, 0.07825381, 0.04732309, 0.23120813, 0.14752454,
          1.79092327e-04, 0.03212747, 0.23120813, 0.13086936, 0.02203012,
          0.03547809, 0.12629282, 0.13077912, 8.66214465e-03, 0.01456274,
          0.10622123, 7.44695729e-03, 6.85432577e-04, 7.61824951e-04,
          0.14945021, 0.11199000, 4.84140916e-03, 2.17743102e-03,
          5.05038816e-03, 0.01967468, 1.89670525e-03, 5.30459266e-03,
          0.21297275, 0.17673962, 1.78917532e-03, 0.01134123, 0.02824269,
          0.23120813, 0.14188997, 0.07770459, 0.23120813, 0.15998375,
          3.00424569e-03, 0.09111160, 0.23120813, 0.12932622, 0.05028215,
          0.04511144, 0.15812275, 0.13466732, 5.28851338e-03, 0.01740505,
          0.12662043, 0.01420161, 2.93413876e-03, 0.01249001, 0.15880960,
          0.15940416, 1.69876299e-03, 8.45993345e-04, 0.01537901,
          0.02244378, 2.51341518e-03, 0.03588549, 0.08121433, 0.05466859,
          2.98195891e-03, 1.15238805e-03, 0.03272733, 0.12464020,
          2.17090454e-03, 4.39117895e-03, 0.07944980, 0.11745578,
          5.00437198e-03, 4.75567346e-03, 0.15223660, 0.17322944,
          5.34323975e-03, 0.02653030, 0.10486761, 0.08538654, 0.03822528,
          2.55893031e-03, 0.14602080, 0.03117730, 0.02044372, 0.03727535,
          0.06850371, 0.07019635, 6.48518605e-03, 3.54621705e-04,
          0.02573490 ]
      - [ 4.61477321e-03, 0.01348685, 0.04638115, 0.07384434, 0.05343404,
          1.89155992e-03, 7.96290487e-03, 0.01367935, 0.08045461,
          0.01133265, 0.04995937, 0.06040661, 0.04287072, 3.44124530e-03,
          6.91353343e-03, 0.12805299, 0.16572978, 7.90021475e-03,
          4.63331863e-03, 0.01696537, 0.01426479, 0.02767427,
          5.68183744e-03, 0.15900123, 0.02858906, 1.97411468e-03,
          2.11227103e-03, 0.03444995, 0.04125817, 0.03714273, 0.02305677,
          0.03331624, 9.22306965e-04, 9.35392964e-05, 0.07663142,
          0.19836776, 0.20196487, 0.13227230, 3.51946539e-04,
          1.85998960e-03, 0.02085884, 9.46793519e-03, 0.06578316,
          0.20687130, 0.20462659, 0.08739547, 0.02988627, 0.02615600,
          0.13058139, 0.05043520, 0.05150263, 0.12771453, 0.14221886,
          0.18416867, 0.21530557, 0.12371305, 0.01593268, 5.99015830e-03,
          7.57337036e-03, 0.15427542, 0.21525426, 0.03220839,
          3.16050299e-03, 0.01326342, 3.00370064e-03, 6.19597122e-05,
          1.81740243e-03, 0.22439611, 0.22439611, 0.05164149, 0.01140766,
          5.80892526e-03, 0.03659437, 0.02387120, 0.02376147, 0.22439611,
          0.22439611, 0.03966788, 0.01097919, 0.02475013, 0.12357029,
          0.07983495, 0.03693771, 0.04983089, 0.06397592, 0.02395831,
          0.03793356, 0.07867770, 0.01497823, 0.01198507, 4.44426946e-03,
          0.16054270, 0.21069762, 0.02034334, 2.02640449e-03, 0.01331250,
          0.02928920, 1.03266197e-04, 4.31678304e-03, 0.09821917,
          0.09164625, 0.03780013, 0.02559826, 0.03987811, 0.14861859,
          0.01327850, 5.48470346e-03, 0.07802154, 0.07742203, 0.04492757,
          0.01522159, 0.11380197, 0.19784325, 0.02325927, 7.11611239e-03,
          0.01731687, 0.01605813, 5.97473560e-03, 2.27614888e-03,
          0.15690054, 0.03521695, 0.05317144, 0.02310854, 0.05490772,
          0.04368244, 9.23523493e-03, 0.01150522, 0.04223893 ]
      - [ 0.04734406, 0.03514152, 0.03741499, 0.04931921, 0.05760022,
          0.01512004, 3.54762678e-03, 0.02193011, 0.06690378, 0.06182093,
          0.03785930, 0.08962702, 0.07634144, 0.03087619, 6.66084094e-03,
          0.04169960, 0.05253565, 0.03279101, 0.06256569, 0.09945647,
          0.11373673, 0.03503729, 0.04385923, 0.03214939, 0.02598815,
          0.01030924, 0.01198203, 0.04949686, 0.03980073, 7.64687313e-03,
          0.03101159, 0.01567057, 0.12751713, 0.01449154, 0.09581700,
          0.05770846, 0.03721729, 0.03275561, 0.01340008, 0.11156912,
          0.04529929, 0.01823217, 0.09394456, 0.14369318, 0.15255512,
          0.06027446, 0.01199821, 0.06075381, 0.03036401, 8.82846862e-03,
          0.12490368, 0.26052359, 0.26052359, 0.16374606, 0.08331582,
          0.06719434, 8.64087418e-03, 2.35438021e-03, 0.05196105,
          0.14514853, 0.12902965, 0.07199411, 0.03299567, 0.02614857,
          0.02598662, 0.01561253, 8.67173262e-03, 0.03462585, 0.03112426,
          0.01651537, 0.01587474, 0.02122494, 0.05979834, 0.03810522,
          0.03812822, 0.06346501, 0.08668491, 0.01952990, 0.01344884,
          0.02759670, 0.02611044, 9.24908929e-03, 0.26052359, 0.26052359,
          0.26052359, 0.23849162, 0.06903855, 0.04585755, 0.02129308,
          4.48732899e-04, 0.08972540, 0.17029601, 0.18253148, 0.04948466,
          0.01742265, 0.02474181, 0.07463396, 0.01421143, 3.97074549e-03,
          0.01252980, 0.01599897, 2.48089503e-03, 0.02397930, 0.04485252,
          0.20997280, 0.02207352, 2.73485784e-03, 0.01400908, 0.02176301,
          0.01127444, 0.01695249, 0.13597982, 0.22164553, 3.77198658e-03,
          0.01209085, 0.07893712, 0.08875474, 0.10950409, 0.06598452,
          0.18135571, 0.09517302, 0.02712497, 6.36195717e-03, 0.05200063,
          0.04626108, 0.03557863, 0.05613466, 0.05929547 ]
      - [ 5.65869454e-03, 2.12120521e-03, 6.45780098e-03, 0.02334750,
          0.01558715, 1.82796293e-03, 2.26180628e-03, 7.05095567e-03,
          0.01460926, 0.02095303, 9.47208796e-03, 0.09968261, 0.11166898,
          0.01041826, 6.83592260e-03, 0.01314562, 0.08445484, 0.02630353,
          0.01308388, 0.08560128, 0.08569650, 8.34443327e-03,
          2.84982636e-03, 0.07199448, 0.02696894, 8.28488730e-03,
          5.78920310e-03, 0.04128031, 0.01793906, 5.20114205e-04,
          0.01564634, 0.01682167, 0.01861168, 0.01375055, 4.14990215e-03,
          0.08117706, 0.04416252, 3.96833639e-04, 5.19353838e-04,
          5.06140711e-03, 0.06169210, 0.02116356, 8.55895504e-03,
          0.13683736, 0.26347944, 0.09997132, 4.81687626e-03, 0.04304159,
          0.16191652, 0.01129937, 0.01023293, 0.18236466, 0.26347944,
          0.07462516, 0.01213115, 0.15706599, 0.01698608, 0.01226896,
          4.19790484e-03, 0.08927359, 0.07710811, 4.35761968e-03,
          2.05902639e-03, 0.01219096, 0.04188535, 0.02118749,
          4.45335964e-03, 0.10677179, 0.04699879, 1.77782858e-04,
          2.61241541e-04, 4.76875436e-03, 0.10744686, 0.03209963,
          0.01127146, 0.22588289, 0.26347944, 0.02241652, 0.02619926,
          0.04869911, 0.25525784, 5.66531811e-03, 3.38075985e-03,
          0.26347944, 0.26347944, 0.03924221, 0.04718810, 0.20303346,
          0.05550080, 0.01610692, 3.26960534e-03, 0.10574778, 0.06767970,
          9.23979189e-03, 6.46240776e-03, 0.04050708, 0.01984802,
          2.74075544e-03, 7.27097795e-04, 0.03246469, 0.03159072,
          0.01468578, 8.48685578e-03, 0.02664172, 0.11533041,
          3.53906513e-03, 7.58170150e-04, 0.06094533, 0.09775884,
          0.02308497, 0.03341679, 0.11399480, 0.26347944, 5.84515976e-03,
          2.19883118e-03, 0.06053923, 0.08211832, 0.03870773, 0.05666247,
          0.26347944, 0.12035643, 0.03579018, 0.01290502, 0.05050237,
          0.02868714, 3.18036252e-03, 0.03824935, 0.11044875 ]
      - [ 0.01937133, 0.01857132, 0.01739014, 0.05029845, 0.04309925,
          0.01430147, 0.01402992, 0.02412288, 0.08928347, 0.08893581,
          0.05055412, 0.12158097, 0.05677998, 0.02363053, 0.02904975,
          0.07604872, 0.16984373, 0.04234200, 0.01296669, 0.07542076,
          0.07158505, 5.23017906e-03, 0.01172753, 0.08865436, 0.06622247,
          0.01315017, 6.83545182e-03, 0.02174710, 0.01069018,
          4.15972527e-03, 8.60276911e-03, 0.04160547, 0.01109982,
          3.96359153e-03, 2.54517375e-03, 0.16901948, 0.10530168,
          0.04593920, 0.03732797, 7.91030377e-03, 0.06853789, 0.02746645,
          0.03703664, 0.26445097, 0.26445097, 0.10374241, 0.12748012,
          0.13650900, 0.04806225, 0.04676291, 0.04017636, 0.26445097,
          0.26445097, 0.03006145, 0.06198249, 0.08650872, 0.02727526,
          0.02073254, 0.01863397, 0.06680091, 0.10552801, 0.01149566,
          0.03118123, 0.02520531, 2.69261468e-03, 2.53171474e-03,
          4.11089929e-03, 0.17697491, 0.08794558, 4.74849949e-03,
          2.87947338e-03, 2.33380869e-03, 8.97195097e-03, 9.70778801e-03,
          0.05025424, 0.26445097, 0.26445097, 0.08216886, 0.02982281,
          0.01859621, 0.05172578, 0.02559183, 0.12510620, 0.26445097,
          0.26445097, 0.10438199, 0.05920734, 0.05724420, 0.03266654,
          8.89933016e-03, 0.01913186, 0.07775233, 0.05957796,
          5.51598659e-03, 0.01442777, 0.03191615, 0.02469885,
          7.28878425e-04, 3.90739227e-03, 0.05664715, 0.02630548,
          0.01720191, 4.56423312e-03, 0.03396527, 0.07695434, 0.02738912,
          0.02437828, 0.09818070, 0.16891994, 0.02415478, 0.01893390,
          0.05817895, 0.07950038, 0.02369348, 0.04705667, 0.08301522,
          0.11813492, 0.04563840, 0.03897678, 0.08038796, 0.03953756,
          0.01470225, 6.22443203e-03, 0.01437590, 0.01143489,
          5.74599858e-03, 9.98908188e-03, 0.03562811 ]
      - [ 0.07076889, 0., 2.65932671e-04, 0.01514249, 0.02228746,
          1.20882389e-04, 6.85071456e-04, 0.07117455, 0.19319679,
          2.62569380e-03, 1.41380460e-03, 0.08307437, 0.07195320, 0.,
          6.39670249e-03, 0.16898519, 0.21460597, 0.01401402,
          4.85415105e-03, 0.02973201, 0.01425906, 4.18758206e-03,
          0.01901620, 0.20367502, 0.04917973, 0.01067179, 0.02127414,
          0.02998891, 0.09297132, 0.02993137, 2.61640525e-03, 0.05668860,
          0.18840790, 3.53367126e-04, 1.59559611e-04, 7.92091805e-03,
          0.01220790, 7.25294376e-05, 7.77949870e-04, 0.19775493,
          0.26269403, 0.01415246, 8.48282769e-04, 0.04707894, 0.04040624,
          0., 0.01461923, 0.26269403, 0.26269403, 0.11032077, 0.01829329,
          0.01448652, 0.01338556, 0.08439221, 0.08011208, 0.26269403,
          0.08823557, 0.04964525, 0.05568860, 0.03848736, 0.08593281,
          0.04687007, 0.01809314, 0.15273836, 0.09402323, 0.01393349,
          2.39551606e-04, 2.41976031e-05, 2.41975977e-05, 1.10456464e-03,
          6.84723491e-03, 0.07741854, 0.22252457, 0.01474600,
          3.99252662e-04, 3.45680019e-06, 3.45679973e-06, 6.66730525e-03,
          0.02161915, 0.25559321, 0.09648440, 0.03600772, 0.02392485,
          5.64340781e-03, 0.05926682, 0.15038699, 0.06541497, 0.22928379,
          0.02468391, 0.02487980, 0.03968188, 0.03426835, 0.12415906,
          0.09140481, 0.03529328, 0.02846161, 0.04722069, 0.01194454,
          4.24404582e-03, 1.55118818e-03, 1.55118632e-03, 1.96564710e-03,
          8.05529673e-03, 0.05117472, 0.12089866, 0.02469307,
          2.69974023e-03, 2.88152019e-03, 2.88151694e-03, 0.01137658,
          0.03022839, 0.13562797, 0.11279028, 0.03411589, 7.23680155e-03,
          5.23295533e-03, 0.01795059, 0.01552336, 0.03241906, 0.21446243,
          0.04776566, 7.43591739e-03, 0.03019274, 0.05780568, 0.08253001,
          9.01566725e-03, 0.02416527, 0.05497471 ]
      - [ 1.01582566e-03, 6.84146653e-04, 3.74581572e-03, 0.05579529,
          0.04123746, 3.57898767e-04, 4.86215140e-05, 8.77136539e-04,
          0.03516323, 0.02040508, 0.03730175, 0.08645550, 0.07589904,
          0.03212867, 9.45486221e-03, 0.06979758, 0.03541349,
          5.67543413e-03, 8.51786602e-03, 0.04084687, 0.05322709,
          0.01975092, 6.00316701e-03, 0.04641879, 1.86152721e-03, 0., 0.,
          0.03917590, 0.09693799, 6.91097183e-03, 1.98149515e-04,
          3.49612557e-03, 5.26797900e-04, 4.09726053e-04, 6.64677937e-04,
          0.17175105, 0.13378987, 1.75977606e-04, 3.40350554e-04,
          6.79749064e-04, 0.01487368, 0.16614437, 0.10786772, 0.23268454,
          0.23268454, 0.17789747, 0.13864660, 0.03483231, 0.02904924,
          0.08859894, 0.04812038, 0.18432994, 0.20829438, 0.07396772,
          0.07184543, 0.04875613, 1.19123387e-03, 1.91504441e-04, 0.,
          0.17846364, 0.21443117, 1.60251593e-03, 7.28492334e-04,
          8.82831519e-04, 2.00563879e-03, 0., 7.18791154e-04, 0.18110143,
          0.15263137, 2.76796368e-06, 2.80528562e-04, 1.61701383e-03,
          0.10683998, 0.08587911, 0.06008215, 0.23268454, 0.23268454,
          0.15266673, 0.19624288, 0.12044778, 0.09071499, 0.06174368,
          0.04960205, 0.15842961, 0.14949079, 0.07121812, 0.10395555,
          0.10268597, 0.01149423, 4.82689543e-03, 0.02184551, 0.18853527,
          0.21332525, 3.14317667e-03, 5.77889709e-03, 8.44766200e-03,
          3.75035941e-03, 0., 1.92850915e-04, 0.06811607, 0.05984898,
          5.81777981e-03, 7.00609293e-03, 4.06684354e-03, 0.09100322,
          2.21787090e-03, 3.28905764e-04, 0.07336909, 0.06431472,
          0.02377749, 0.02275122, 0.11384358, 0.11839966, 0.04086515,
          9.41726658e-03, 0.01662971, 0.02037677, 0.06769720, 0.07064796,
          0.11619499, 0.01849763, 0.03490459, 0.01395308, 0.06102417,
          0.07513461, 0.01665113, 0.01079065, 0.01252673 ]
      - [ 0.01012836, 0.02722349, 0.07533489, 0.09240981, 0.08292731,
          0.02239866, 6.30383193e-03, 0.01279023, 0.04778782, 0.03849995,
          0.10485335, 0.10044404, 0.13705412, 0.03889588, 0.01108165,
          0.04250159, 0.06215913, 0.01238156, 0.01733502, 0.05442777,
          0.03359324, 9.98343900e-03, 0.01895331, 0.02730349, 0.04937465,
          8.36129824e-04, 9.43925884e-03, 0.04964874, 0.04489448,
          0.01614404, 0.03022397, 0.02553129, 0.11345820, 0.04690697,
          0.05860040, 0.22198008, 0.22198008, 0.06905281, 0.01049001,
          0.05544237, 0.15415069, 0.08383428, 0.18458192, 0.15770675,
          0.16375875, 0.10612717, 0.03960074, 0.14009081, 0.03695667,
          0.04503860, 0.08846972, 0.18516193, 0.17266822, 0.08118062,
          0.08247264, 0.03299896, 0.07409430, 0.07275932, 0.13617955,
          0.17310379, 0.17501846, 0.15174837, 0.11586468, 0.04214798,
          0.01344324, 3.52545152e-03, 0.01145924, 0.22198008, 0.22198008,
          4.92074480e-03, 4.54269489e-03, 0.01478418, 0.03856849,
          0.03020571, 0.03874630, 0.04175186, 0.06351051, 0.01713863,
          0.02974277, 0.04857608, 0.05339286, 0.05549506, 0.06603170,
          0.09468812, 0.13162975, 0.05449828, 0.07224303, 0.09875943,
          0.13342987, 0.07020546, 0.10233196, 0.13690433, 0.15002102,
          0.07413072, 0.06498477, 0.20287807, 0.02275190, 2.30026664e-03,
          2.70343968e-03, 0.09923539, 0.09478267, 0.03876537, 0.02189050,
          0.01081442, 0.10774967, 0.03490353, 0.01142110, 0.01598545,
          0.02181348, 7.71946972e-03, 3.98975937e-03, 0.09177838,
          0.10871139, 0.02896424, 0.02406577, 0.05480894, 0.09283237,
          0.02598403, 0.01267590, 0.15016030, 0.06403748, 0.04356841,
          0.06515195, 0.06974909, 0.09481299, 0.04330944, 0.01393791,
          0.08589263 ]
      - [ 0.01613316, 2.46040570e-03, 4.00619954e-03, 0.03050479,
          0.02459367, 5.88828279e-03, 3.25003662e-03, 0.01262030,
          0.08463316, 3.24216578e-03, 0.02546619, 0.08817724, 0.09408530,
          0.01387997, 0.01782035, 0.08416922, 0.06593107, 0.01459082,
          0.07008786, 0.11507838, 0.13179176, 0.03649904, 0.01328611,
          0.13686727, 0.02282896, 7.67981680e-03, 5.95251890e-03,
          0.06611170, 0.05596529, 0.01963863, 6.06642524e-03, 0.02025699,
          0.02135747, 5.76665346e-03, 0.01252133, 0.08409786, 0.07935066,
          3.30931769e-04, 1.10528979e-03, 7.21406983e-03, 0.22484307,
